\data\
ngram 1=904
ngram 2=24780

\1-grams:
-4.227737	<unk>	0
0	<s>	-0.7190733
-1.8538134	</s>	0
-2.8760247	Ʋ	-0.22166416
-2.1365025	|	-0.8130436
-2.5682418	w	-0.3607396
-3.0937934	А	-0.8112146
-2.0953207		-0.70054185
-1.9155828	{	-0.6255522
-2.4597707		-0.38460815
-2.4119804	à	-0.36835808
-3.2812693	³	-0.35242912
-2.4699938	а	-0.58225024
-2.654001	ñ	-0.3265767
-2.6019423	û	-0.66268927
-2.9796834	Ò	-0.3668196
-3.4928186	Ȧ	-0.3364855
-2.4211268	ï	-0.41830224
-2.2938452	u	-0.5764451
-3.218973	å	-0.30517542
-2.507798	ǈ	-0.2806016
-2.7223105	Ȑ	-0.5951333
-3.441465	τ	-0.25473452
-2.5682418	Ć	-0.62871784
-3.6183615	Ͽ	-0.34363768
-1.9184784	j	-0.7532553
-2.3856425	t	-0.5233154
-3.3540223	ɂ	-0.21623112
-2.124666	б	-0.5658494
-3.3540223	΄	-0.20920263
-2.3689315	ş	-0.4115767
-2.053723	g	-0.553736
-2.4257736	£	-0.34621835
-3.218973	Ĩ	-0.33962986
-2.3899229	é	-0.53891873
-3.249005	ʥ	-0.2800169
-1.8601173		-0.5670427
-2.588147	Ŵ	-0.5466009
-2.192795	Ã	-0.44775957
-3.3540223	Ν	-0.31508118
-3.0144916	Ø	-0.3218534
-2.661975	м	-0.40453547
-3.5510693	ɣ	-0.55156666
-2.3411505	й	-0.42234305
-2.5682418	f	-0.6476751
-2.5618045	в	-0.49236465
-3.3955464	ƥ	-0.19497256
-2.4699938	ŉ	-0.4755997
-2.3648524	n	-0.40293896
-2.1511457		-0.54102093
-2.3942456	k	-0.57597864
-3.441465	Ǽ	-0.30374604
-3.5510693	ʴ	-0.20005898
-3.249005	Ј	-0.20005898
-1.9842243		-0.62316656
-3.3540223	ĥ	-0.35625616
-3.6980267	Ŋ	-0.19268009
-2.464852	д	-0.4453888
-2.1900716	y	-0.49815357
-1.9127063		-0.69125813
-2.3942456	Ë	-0.46853936
-2.530976		-0.5482821
-2.5134776	Ы	-0.41197106
-3.1161077	Ǌ	-0.20139574
-2.7131608	л	-0.41309008
-3.3161242	ʫ	-0.21656886
-2.5250645	Ô	-0.51101536
-3.218973	¶	-0.2650244
-2.9322011	ˋ	-0.54591227
-3.441465	Ɗ	-0.32706594
-2.7131608	¤	-0.4229733
-2.7131608		-0.4206934
-3.249005	Ч	-0.41745776
-2.8894024	ŧ	-0.25665832
-2.4119804		-0.68340856
-3.6980267	θ	-0.24801269
-2.6019423	Š	-0.3629299
-2.0698872	Ъ	-1.2981268
-2.4030225	у	-1.246558
-2.7924023	е	-0.3987102
-2.7131608	í	-0.45531285
-3.0330012	ų	-0.27961653
-2.1462095		-0.5184016
-3.052335	Ǟ	-0.23758274
-2.4699938	Ю	-0.5540161
-2.9796834		-0.4882621
-2.7711957	Ƀ	-0.4563547
-2.7223105	ɱ	-0.65038174
-3.5510693	Ȕ	-0.30364794
-3.249005	ʼ	-0.38523674
-2.947459		-0.27540845
-3.3540223	Ϩ	-0.23942867
-3.164502	þ	-0.30025876
-2.947459		-0.34977075
-2.3489084	±	-0.38668153
-2.5554614	Я	-0.41375414
-2.5134776	Ė	-0.3392667
-2.2123528	l	-0.67411315
-2.5430462	x	-0.41836762
-2.3648524		-0.4097368
-3.164502	ź	-0.26969284
-2.2543268	s	-0.6704036
-2.4597707	h	-0.42853308
-2.5554614	ж	-0.58673
-2.623494	з	-0.46554965
-2.7924023	°	-0.39820406
-3.218973	Ѐ	-0.94325894
-2.4352186	Ħ	-0.4968974
-2.630922	v	-0.5687872
-2.5949898	Ÿ	-0.29596025
-2.8760247	ű	-0.55712795
-2.6700978		-0.38088122
-2.8034067		-0.35435495
-3.441465	Ɲ	-0.22832718
-2.5369692	ğ	-0.44206512
-3.0144916	į	-0.25683647
-2.7412095	½	-0.31493175
-2.7609684	т	-0.36309364
-2.8262897		-0.33772054
-2.661975	É	-0.49995697
-2.996739	­	-0.28660554
-2.5192325		-0.337853
-2.947459	ń	-0.24250336
-2.7816696	ȁ	-0.40680712
-3.3955464	Ų	-0.30794853
-2.2511904	z	-0.64827645
-2.8894024	«	-0.4437542
-2.8381999	ǟ	-0.2971519
-2.7316573		-0.34045255
-2.609008	ŵ	-0.3500652
-3.6980267	ς	-0.23231539
-3.190884	ʑ	-0.20587258
-3.1161077	Ƭ	-0.39146674
-2.287004	Ď	-0.42834544
-3.4928186	Е	-1.2777127
-3.190884	Ǳ	-0.20284389
-3.1161077	̋	-0.36083323
-3.249005	ĩ	-0.40596488
-2.0824177	´	-0.52582747
-3.0330012	ł	-0.34125766
-2.947459	ƞ	-0.42743143
-2.8034067	Þ	-0.3708389
-2.8760247	ǔ	-0.4572531
-3.3161242	Ā	-0.27572846
-2.5682418	Ō	-0.4972913
-2.464852	Ą	-0.3673208
-2.686814	Ŷ	-0.2739299
-3.6980267	ͬ	-0.4590321
-3.3955464	˨	-0.23354518
-3.164502	ή	-0.36824864
-2.630922	г	-0.4233115
-3.3955464	Ŕ	-0.29700842
-3.0330012	õ	-0.352598
-2.8262897	ĭ	-0.30644795
-2.9322011	ė	-0.38214982
-2.4257736	ú	-0.3039045
-3.3955464	̊	-0.53923124
-3.7956634	ώ	-0.21834046
-2.661975	Ь	-0.41445145
-2.8504457	Ĭ	-0.36922494
-3.0144916	Ǩ	-0.46685398
-2.9174612	ø	-0.26603264
-2.947459	¹	-0.2760349
-3.9218163	Ђ	-0.1877291
-2.661975	Ü	-0.52145463
-2.5021918	}	-0.44467753
-2.7609684	ƫ	-0.46246535
-2.7816696	ò	-0.4992582
-2.9632723	ǰ	-0.38516334
-3.6183615	̀	-0.34206372
-3.1161077	Ű	-0.4234912
-2.3856425	e	-0.489816
-3.3955464	ĵ	-0.684273
-2.5492094	п	-0.44054806
-3.052335	ϕ	-0.26127568
-3.0937934	̶	-0.442757
-2.7711957	¸	-0.3940218
-3.0144916	ǥ	-0.29420522
-2.863047	Ž	-0.3089568
-2.5682418	ó	-0.62917185
-2.5618045		-0.39312434
-3.249005	Ǎ	-0.2381272
-2.9796834	Â	-0.49701983
-2.7609684	Ç	-0.3763371
-2.7711957	Ð	-0.36727554
-2.9174612	̺	-0.59776175
-2.7509766	©	-0.40221918
-2.5618045		-0.43120372
-2.9322011		-0.36366552
-3.0330012	˲	-0.5309855
-3.1161077	Ȭ	-0.51847774
-2.8504457	ë	-0.30984867
-3.0144916	ʩ	-0.2613709
-2.9796834	˳	-0.4002086
-2.9796834	ˤ	-0.26386452
-2.3150403	¢	-0.49937153
-2.8504457	Ȫ	-0.45017183
-3.3540223	Ľ	-0.21761712
-3.0937934	ȱ	-0.50627494
-2.2123528		-0.67083454
-3.190884	˾	-0.33751157
-2.5430462	и	-0.43317354
-3.0330012	ǩ	-0.29004604
-2.3648524	µ	-0.5883175
-2.7131608	i	-0.5595176
-3.3540223	ϭ	-0.25028393
-2.1019187	¯	-0.48298764
-3.218973	ƃ	-0.366112
-2.9174612	ŏ	-0.4211875
-3.4928186	ŝ	-0.19828303
-2.5250645	m	-0.50386053
-3.052335	Ö	-0.34576276
-2.574776		-0.34447575
-2.996739	ð	-0.5025658
-2.8034067	Ǫ	-0.32473207
-3.3955464	İ	-0.20832327
-3.164502	˽	-0.2738455
-2.863047	æ	-0.5347528
-2.609008	ā	-0.33944532
-2.8146975	ƕ	-0.31176767
-3.4928186	Ĕ	-0.23559102
-2.9322011	͆	-0.4460273
-2.2181063	Ñ	-0.5243135
-3.3540223	Ƃ	-0.18006124
-2.996739	͛	-0.41149986
-3.441465	ƴ	-0.29784203
-2.7316573	Ó	-0.25647986
-2.7041998	Ʃ	-0.27360803
-2.7509766	ľ	-0.6005015
-3.164502	Ǚ	-0.29703736
-2.8504457	Ê	-0.5444327
-2.574776	r	-0.37799856
-2.8146975	È	-0.36842334
-3.6183615	ǻ	-0.69144696
-2.9796834	ά	-0.7665054
-3.6183615	̼	-0.24754359
-2.5369692	ȥ	-0.42049414
-2.8034067	Ȩ	-0.34173167
-3.164502	Ї	-0.41756386
-2.947459	Ŝ	-0.28850085
-3.3955464	œ	-0.20490125
-3.190884	Ɖ	-0.2749504
-2.7609684	ƾ	-0.62273216
-2.863047		-0.33512703
-3.218973	ͨ	-0.59855175
-2.8894024	˃	-0.2340988
-3.441465	ʀ	-0.3107819
-3.249005	Ϸ	-0.22202682
-3.6980267	͜	-0.4076919
-2.686814	ż	-0.29505953
-2.454748	â	-0.3464636
-3.6980267	ȹ	-0.25908947
-2.3223414	ŗ	-0.4158682
-3.052335	ʞ	-0.23581071
-2.5682418	¾	-0.26772407
-2.630922	к	-0.4352849
-2.8381999	Ģ	-0.34228438
-3.052335	ƽ	-0.27304843
-2.686814	Ũ	-0.3828217
-2.8894024	ĳ	-0.46241796
-3.3955464	˴	-0.2283178
-3.9218163	Μ	-0.20758298
-3.2812693	ʝ	-0.25931162
-2.4911916	¡	-0.53921854
-3.0937934	ĕ	-0.37610242
-2.9632723	¼	-0.40128964
-3.0144916	ˑ	-0.40501776
-2.9322011	ǳ	-0.4154788
-3.164502	Ȼ	-0.21017365
-2.8504457	ȅ	-0.40529406
-4.0019712	Ο	-0.2829408
-3.7956634	ϱ	-0.34012613
-2.8504457		-0.5055394
-3.190884	ʠ	-0.20771053
-3.6980267	̏	-0.21270934
-2.9322011	ɇ	-0.32515356
-2.5192325	Ġ	-0.40199292
-3.052335	ɫ	-0.40782392
-3.6980267	̛	-0.4590321
-2.8262897	Ȓ	-0.645424
-3.0330012	ō	-0.34954566
-2.3223414		-0.6462316
-2.8760247	Ǡ	-0.24539047
-3.3955464	ɷ	-0.18006124
-3.139631	ƨ	-0.23392418
-3.164502	Ʊ	-0.51609564
-2.4804635	ģ	-0.46959722
-2.2543268	~	-0.574412
-3.2812693	ǀ	-0.23675719
-2.464852	ą	-0.38209677
-3.9218163	ˀ	-0.198083
-3.3540223	ͮ	-0.55594206
-3.3540223	ů	-0.36802107
-3.441465	ʮ	-0.37650394
-3.2812693	Ȃ	-0.32582566
-2.3772068	Ƅ	-0.3550458
-4.0019712	ǹ	-0.2829408
-3.0937934	Έ	-0.5839708
-3.190884	®	-0.22628613
-2.5250645	Э	-0.5114731
-2.6384797	Î	-0.5481397
-2.2268822		-0.46233004
-2.4699938	è	-0.4064603
-2.7711957	ƿ	-0.42483246
-2.996739	ɹ	-0.587197
-3.4928186	ϡ	-0.18869717
-2.475197	ǎ	-0.48758453
-3.164502	ͺ	-0.35122424
-2.2181063	Æ	-0.5183702
-3.3540223	Ơ	-0.3698871
-3.0330012	¦	-0.27317938
-2.5192325	đ	-0.57637995
-4.100346	΂	-0.21158008
-2.9174612	Ƿ	-0.20237848
-3.3955464	Ϛ	-0.1939624
-3.0725696	ŕ	-0.2812537
-2.5949898		-0.43609893
-2.8381999	ă	-0.32096696
-2.996739	ǽ	-0.33241254
-3.3161242	Į	-0.22430192
-3.6183615	ɸ	-0.27634043
-3.218973	ĺ	-0.2052057
-3.218973	ʨ	-0.2834621
-3.164502	̹	-0.35452503
-3.7956634	Ǯ	-0.3246577
-3.0330012	ʜ	-0.20616865
-3.3540223	ɉ	-0.32024348
-3.4928186	ʘ	-0.23449035
-3.7956634	ϧ	-0.18006124
-3.4928186	ΐ	-0.20520225
-2.9174612	ü	-0.47617018
-3.7956634	Ɏ	-0.3050863
-3.0937934	˅	-0.22995071
-2.7223105	p	-0.35450086
-3.190884	Ɩ	-0.2022186
-3.6980267	͎	-0.26032275
-2.947459	ŭ	-0.30573404
-3.441465	ʷ	-0.292012
-3.5510693	ϝ	-0.30801275
-2.58141	Ú	-0.5094608
-3.0937934	ɾ	-0.30200973
-2.7924023	ć	-0.26439545
-2.7412095	Ɣ	-0.6246358
-3.4928186	˸	-0.1907147
-4.0019712	Ä	-0.35023284
-3.2812693	ȭ	-0.20693491
-2.996739	č	-0.48832232
-3.3955464	ˈ	-0.55594206
-3.6980267	̗	-0.3798508
-3.190884	Ʒ	-0.20942253
-3.6183615	Ή	-0.21834046
-3.3161242	͐	-0.32629293
-2.947459	ċ	-0.3772387
-3.6183615	ŋ	-0.2806351
-2.623494	н	-0.43812102
-3.441465	˒	-0.19268009
-2.8504457	˕	-0.5342247
-3.5510693	˩	-0.1907147
-3.3955464	ɬ	-0.35738027
-3.5510693	̾	-0.1939624
-3.6183615	ʺ	-0.20348333
-3.3955464	͖	-0.2527042
-3.139631	ǉ	-0.45381522
-2.8381999	Ǔ	-0.38610584
-2.947459	ň	-0.29686698
-2.8504457	с	-0.4168892
-3.5510693	ɿ	-0.31106988
-3.1161077	Υ	-0.27536154
-2.8760247	Ċ	-0.45144957
-3.218973	Ϣ	-0.39060718
-3.052335	Ȅ	-0.38558543
-2.996739	ǜ	-0.36618742
-3.0725696	ņ	-0.272937
-2.947459	Ʀ	-0.5075264
-2.7509766	 	-0.6246486
-2.9632723	ɚ	-0.68085915
-3.6980267	͍	-0.33256772
-3.218973	ʤ	-0.4342085
-3.0144916	ʗ	-0.20629068
-2.9632723	Ϳ	-0.29174873
-3.2812693	Ķ	-0.3469925
-2.5949898	ě	-0.34529525
-3.3540223	ȯ	-0.2564295
-3.7956634	ȿ	-0.22752576
-3.249005	΁	-0.23991577
-2.646171	ǘ	-0.39157578
-3.249005	ǯ	-0.35772645
-3.9218163	Ɇ	-0.19161442
-3.218973	Ƣ	-0.22921616
-3.3161242	º	-0.43116504
-2.7816696	Ś	-0.2481928
-3.164502	Ί	-0.3034808
-3.052335	Ȍ	-0.49787682
-3.3540223	Ȏ	-0.38135216
-4.100346	Φ	-0.1975083
-3.441465	Ǻ	-0.22202682
-2.8760247	ç	-0.35202527
-3.9218163	ʉ	-0.1939624
-3.218973	ϑ	-0.6351234
-2.8760247	ž	-0.68360406
-2.7609684	ʓ	-0.35623887
-2.3730495	ƶ	-0.40492305
-3.5510693	Η	-0.19161442
-3.052335	Ŧ	-0.22451314
-3.0725696	̿	-0.5481244
-2.9632723	Û	-0.3418551
-2.9322011	Ğ	-0.6318269
-3.0330012	ǵ	-0.29613912
-3.218973	Ĵ	-0.2344923
-3.190884	˭	-0.24899802
-2.9174612	ɗ	-0.42864856
-4.0019712	Ϧ	-0.23231539
-2.588147	÷	-0.45319206
-3.5510693	ś	-0.18818443
-2.8504457	ɔ	-0.33436024
-3.164502	ȕ	-0.2961084
-2.7412095		-0.7421259
-3.218973	̞	-0.25104666
-3.9218163	˜	-0.21983066
-3.4928186	ʊ	-0.25928393
-3.0330012	Ʈ	-0.24627963
-3.3540223	˞	-0.19978712
-3.441465	ͦ	-0.5613527
-3.2812693	́	-0.3096892
-3.0725696	ɼ	-0.29593265
-2.9174612	Ǉ	-0.2761845
-3.0937934	ш	-0.25172323
-2.996739	Ƽ	-0.35384515
-3.218973	Ĝ	-0.32813805
-4.0019712	˺	-0.18006124
-2.475197	ġ	-0.5462845
-2.7609684	§	-0.5664638
-3.3955464	ȉ	-0.20414364
-3.139631	ɧ	-0.44661254
-3.0144916	ʳ	-0.34494138
-2.9796834	̝	-0.58071667
-3.052335	ˡ	-0.2936392
-3.6183615	š	-0.3387746
-2.7316573	Ɠ	-0.40553933
-3.3955464	ȧ	-0.4486319
-2.863047	Ǆ	-0.55471057
-2.7223105	Ƥ	-0.25918522
-3.3540223	Ƨ	-0.24228886
-3.3540223	˱	-0.30978522
-3.4928186	ʈ	-0.20520225
-3.164502	Ţ	-0.3308785
-3.6183615	ȇ	-0.33313686
-2.7711957	ƚ	-0.33472067
-3.9218163	͞	-0.21071939
-3.3161242	ʻ	-0.28743482
-2.8760247	ϓ	-0.3642853
-2.7223105	ǣ	-0.59515893
-3.190884	ſ	-0.44599146
-2.863047	Ǧ	-0.4409449
-3.441465	ɮ	-0.21158008
-2.9174612	Ő	-0.22327754
-3.9218163	ο	-0.1975083
-3.0144916	̠	-0.48053065
-3.4928186	͕	-0.35292473
-2.8760247	Ζ	-0.28073272
-2.8894024	ď	-0.3358881
-3.1161077	q	-0.29893002
-3.5510693	̡	-0.2391521
-2.5021918		-0.5726017
-3.164502	ț	-0.23064399
-3.441465	˫	-0.3184935
-3.139631	Ʉ	-0.24666722
-3.4928186	Ϙ	-0.31963798
-2.475197	Ƈ	-0.3594805
-3.6183615	П	-0.21283926
-3.6183615	ǿ	-0.47361296
-3.3540223	ʰ	-0.20163612
-3.0144916	̬	-0.21901168
-3.7956634	ɞ	-0.18006124
-3.6980267	˖	-0.1975083
-3.249005	̢	-0.2993793
-2.661975	Ƙ	-0.75031865
-2.9032054	ƍ	-0.2035196
-3.1161077	Ϫ	-0.63882864
-3.218973	Ɯ	-0.39411044
-2.9174612	ɴ	-0.51299834
-3.4928186	Ɨ	-0.3058828
-3.3955464	̅	-0.21512505
-3.2812693	·	-0.55594206
-3.249005	ʢ	-0.3128198
-2.8504457	Ɵ	-0.27497226
-3.5510693	ǖ	-0.23354518
-2.9796834	̂	-0.20239086
-2.947459	Ī	-0.4117876
-3.3540223	ɩ	-0.24265805
-2.996739	ǋ	-0.23667425
-3.2812693	ǌ	-0.27882802
-3.164502	Õ	-0.24550134
-3.0937934	Ņ	-0.44898057
-3.4928186	ƛ	-0.39139575
-3.9218163	˗	-0.3531304
-2.7816696	Ň	-0.31793568
-3.2812693	π	-0.20005898
-3.441465	̖	-0.35098666
-2.9632723	ɑ	-0.3654516
-3.3161242	͵	-0.18927906
-3.1161077	ˏ	-0.4915548
-3.5510693	ˊ	-0.20587258
-3.6183615	ʱ	-0.33666041
-3.164502	ư	-0.226413
-2.8262897	ä	-0.42524564
-3.139631	Ȉ	-0.4036906
-3.218973	ã	-0.33665556
-3.3540223	Ŭ	-0.20984378
-2.863047	Ŀ	-0.34888756
-2.9174612	Ů	-0.23451872
-2.8760247	ȶ	-0.2619585
-3.3161242	ʐ	-0.23314148
-3.3955464	С	-0.42859754
-2.9032054	ǭ	-0.54403776
-3.139631	ϫ	-0.5333454
-3.3161242	Ş	-0.41745776
-3.3161242	ʙ	-0.27172962
-3.3161242	ƌ	-0.21944275
-3.441465	͝	-0.27671653
-3.6183615	Ē	-0.2217208
-3.249005	ƒ	-0.283384
-3.190884	ъ	-0.4019963
-3.0937934	Œ	-0.86343664
-2.947459	Ϝ	-0.82377267
-2.7223105	ƺ	-0.36010355
-3.6980267	Ў	-0.32347018
-3.218973	Ĥ	-0.35286477
-3.249005	̮	-0.21715863
-3.441465	̌	-0.20163612
-3.3955464	Ǹ	-0.35581785
-3.5510693	μ	-0.20348333
-3.6183615	͒	-0.6027454
-3.3955464	ə	-0.22286431
-3.1161077	ř	-0.38085648
-3.3540223	Ǘ	-0.32763645
-3.6183615	ȣ	-0.1939624
-3.0330012	ȏ	-0.21063034
-3.3955464	͘	-0.3736805
-3.218973	˟	-0.39714068
-3.0937934	̤	-0.6016996
-3.0937934	˓	-0.34653088
-3.4928186	̈́	-0.32537174
-3.218973	ǧ	-0.5075044
-3.139631	ƻ	-0.28354728
-3.4928186	ξ	-0.21568577
-3.164502	˄	-0.50258094
-3.7956634	ɜ	-0.3996166
-3.0725696	ķ	-0.29068372
-3.218973	˷	-0.39907235
-3.2812693	ɍ	-0.40377396
-3.0144916	Ĳ	-0.41753083
-3.4928186	˘	-0.30114737
-3.6183615	Ϊ	-0.19212374
-3.0725696	Г	-0.206448
-3.7956634	ϼ	-0.18006124
-3.5510693	ǆ	-0.38748
-3.4928186	ϳ	-0.39187077
-3.2812693	ƙ	-0.26275465
-3.190884	˂	-0.28416812
-2.9032054	Ȳ	-0.31413135
-3.7956634	˔	-0.21568577
-2.9632723	·	-0.4313764
-3.190884	ϻ	-0.23742934
-3.218973	ǡ	-0.21990281
-3.441465	Ш	-0.3210712
-3.0330012	ˁ	-0.9318728
-3.5510693	ƈ	-0.6501719
-2.9032054	ȸ	-0.43776724
-3.218973	ʁ	-0.2471009
-3.139631	ȴ	-0.20155172
-3.7956634	Є	-0.18006124
-3.6183615	Ƕ	-0.36310008
-4.100346	΅	-0.18006124
-3.7956634	̣	-0.24835576
-3.7956634	ˬ	-0.37081173
-3.0330012	Đ	-0.20866942
-3.218973	ŀ	-0.22230849
-3.0937934	ɢ	-0.27645275
-3.3955464	ɀ	-0.39331257
-3.164502	ʕ	-0.430138
-3.6980267	Ǜ	-0.19978712
-3.6980267	Ȇ	-0.22824101
-3.6183615	ˇ	-0.3933713
-3.3161242	̒	-0.2591262
-3.190884	ɨ	-0.23127855
-3.3540223	ɦ	-0.19614108
-2.9796834	ʟ	-0.34829393
-2.7223105	ǲ	-0.5639055
-3.441465	˼	-0.3211893
-4.100346	ͩ	-0.22102222
-3.2812693	Κ	-0.2944633
-3.3161242	ˎ	-0.21270934
-3.441465	Ǵ	-0.18732212
-2.8504457	²	-0.44608435
-3.249005	Ĉ	-0.2759665
-3.5510693	ͼ	-0.19268009
-2.9032054	ĉ	-0.26707518
-3.0725696	Ǥ	-0.21418975
-3.2812693	˵	-0.3087246
-3.6183615	ʡ	-0.35784155
-3.6980267	Τ	-0.19553477
-2.8504457	ȟ	-0.2324201
-2.7316573	ő	-0.27545288
-3.052335	̀	-0.5831593
-3.249005	ʍ	-0.24527851
-3.4928186	»	-0.44103494
-3.9218163	ū	-0.21568577
-3.139631	Ǒ	-0.2283178
-2.996739	Í	-0.45480335
-3.4928186	ϔ	-0.24253051
-2.7041998	ʣ	-0.33256772
-3.3955464	ʹ	-0.18994498
-3.249005	ʃ	-0.28412086
-3.139631	Д	-0.33891746
-3.6183615	͇	-0.1975083
-3.7956634	̐	-0.339504
-3.1161077	Å	-0.52597886
-3.164502	ǂ	-0.33141524
-3.5510693	σ	-0.1975083
-3.4928186	Ș	-0.25787747
-3.3955464	̚	-0.1907147
-3.3955464	î	-0.27245906
-3.7956634	ɓ	-0.20832323
-3.164502	Ƌ	-0.2069829
-3.6980267	δ	-0.2874128
-3.6183615	˚	-0.21158008
-3.3955464	ͳ	-0.44840893
-3.5510693	ϯ	-0.18006124
-2.9632723	ș	-0.32462567
-3.3955464	ù	-0.5369245
-3.3955464	Á	-0.21041413
-3.6980267	ͽ	-0.1939624
-3.139631	Ȯ	-0.23773377
-3.0725696	˧	-0.34646177
-3.6980267	Ū	-0.2190741
-3.2812693	ʶ	-0.22716975
-3.0725696	ô	-0.57246584
-4.0019712	ˠ	-0.23882455
-3.7956634	̦	-0.29410824
-3.6980267	Ƴ	-0.25467905
-3.0330012	Ϻ	-0.35916317
-3.441465	Ř	-0.5613527
-3.218973	ɛ	-0.25931162
-3.3955464	ͤ	-0.20832327
-3.5510693	ρ	-0.21568577
-3.164502	Ư	-0.4474411
-3.5510693	Ŏ	-0.26527923
-3.3161242	Ͷ	-0.21568577
-3.9218163	Ͱ	-0.20005898
-3.3955464	Ɔ	-0.20738837
-4.0019712	ͻ	-0.18006124
-3.5510693	Ό	-0.23987174
-3.3955464	ĸ	-0.3114011
-2.9322011	ʏ	-0.28969437
-3.218973	Ж	-0.47064447
-3.3955464	Γ	-0.22546032
-2.947459	Ń	-0.45110717
-3.5510693	϶	-0.21158008
-3.164502	¿	-0.4705556
-3.3540223	ɺ	-0.28944114
-4.0019712	̰	-0.18006124
-3.441465	ę	-0.31012425
-3.6980267	ͧ	-0.25850952
-3.3955464	̯	-0.32244053
-2.8760247	ǁ	-0.44759893
-2.9322011	͢	-0.43828782
-3.7956634	΋	-0.23583837
-3.249005	У	-0.25833035
-3.0144916	ʔ	-0.6715266
-3.441465	ɽ	-0.18994498
-3.9218163	ē	-0.18006124
-3.218973	Α	-0.35053182
-3.2812693	ȳ	-0.33387753
-3.5510693	ɏ	-0.34748852
-3.218973	ý	-0.35703817
-4.0019712	ȑ	-0.18006124
-3.052335	̜	-0.22179331
-3.139631	ƀ	-0.35575166
-3.164502	ƭ	-0.23282029
-2.9796834	ʧ	-0.22677068
-3.139631	Ͳ	-0.27680507
-3.5510693	ʇ	-0.47333992
-3.441465	ȝ	-0.19912975
-3.9218163	Л	-0.32347018
-3.218973	̩	-0.578174
-3.7956634	ͷ	-0.37373444
-2.996739	ʂ	-0.51577586
-3.0725696	ϲ	-0.2008176
-3.5510693	ǫ	-0.20920263
-3.249005	λ	-0.22497413
-3.1161077	ɕ	-0.44917214
-3.1161077	ħ	-0.30196115
-3.441465	ǅ	-0.34297082
-3.249005	Ȱ	-0.26989284
-3.5510693	ˌ	-0.23991577
-3.6183615	͗	-0.18006124
-3.190884	̟	-0.25908947
-3.7956634	ː	-0.25278994
-4.0019712	̸	-0.26323688
-3.052335	ʎ	-0.20005898
-3.6183615	Ϲ	-0.3128198
-3.4928186	ȼ	-0.24370731
-4.0019712	ϙ	-0.500209
-4.100346	В	-0.24709436
-3.441465	͉	-0.22286431
-3.249005	ƪ	-0.30423197
-3.0937934	͹	-0.21522252
-3.7956634	Ƹ	-0.22102222
-3.218973	ε	-0.3246577
-2.9796834	o	-0.53457797
-3.4928186	ʵ	-0.45475158
-3.9218163	ɵ	-0.18006124
-3.6980267	ϩ	-0.21715863
-3.5510693	΍	-0.21283926
-3.6980267	ȍ	-0.18006124
-3.164502	Ƒ	-0.45034358
-3.3540223	Ɂ	-0.19912975
-3.164502	ơ	-0.28117204
-3.139631	κ	-0.45708117
-2.7223105	ÿ	-0.6178937
-3.3955464	Ɉ	-0.1975083
-3.9218163	Ё	-0.18006124
-3.1161077	ј	-0.31355232
-3.1161077	Ύ	-0.3016531
-3.6980267	Λ	-0.22824101
-3.6980267	̈	-0.20348333
-3.6980267	Ώ	-0.23855329
-3.190884	̕	-0.3677944
-3.7956634	β	-0.21568577
-3.441465	ψ	-0.2793318
-3.052335	ʋ	-0.21398243
-3.6980267	͌	-0.26856723
-3.5510693	Ϭ	-0.22102222
-3.3161242	ɪ	-0.23243928
-3.3955464	Ƞ	-0.2793318
-3.218973	Ά	-0.44313753
-3.0937934	ˮ	-0.22202682
-3.5510693	ϸ	-0.34019744
-3.3955464	ɲ	-0.267269
-3.441465	Ε	-0.27710083
-3.249005	έ	-0.309281
-3.3955464	Ρ	-0.20005898
-3.441465	͑	-0.32629293
-3.6183615	΀	-0.19553477
-3.6980267	Ȥ	-0.20348333
-3.3955464	ɶ	-0.3562265
-3.6183615	̃	-0.25934616
-3.7956634	ƹ	-0.18818443
-4.100346	ϋ	-0.20520225
-3.7956634	ʲ	-0.1939624
-3.218973	Ź	-0.4150732
-3.7956634	ɭ	-0.21158008
-3.6183615	Ǣ	-0.18006124
-3.7956634	̓	-0.18006124
-3.4928186	ɐ	-0.20567659
-3.3540223	ʾ	-0.355355
-3.3955464	Π	-0.31508118
-3.7956634	ʿ	-0.24709436
-4.100346	Ȋ	-0.18006124
-3.441465	˯	-0.20832327
-3.3955464	ȗ	-0.2635421
-3.3540223	Љ	-0.77576786
-3.6183615	Ϡ	-0.18006124
-3.190884	ȫ	-0.26129788
-3.7956634	Ω	-0.18006124
-3.139631	˹	-0.20067137
-3.164502	̪	-0.38567916
-3.4928186	̘	-0.31664187
-3.0937934	ͥ	-0.5364921
-3.1161077	Ȣ	-0.18632485
-3.1161077	Ȁ	-0.5801816
-2.947459	Ə	-0.76252174
-3.6183615	К	-0.20832323
-3.6980267	Щ	-0.18006124
-3.6183615	ɡ	-0.27961427
-3.6183615	ȩ	-0.23583837
-3.6183615	Σ	-0.18006124
-3.218973	̓	-0.19329023
-3.3161242	Ц	-0.4066569
-4.100346	̄	-0.18006124
-3.4928186	ͯ	-0.18006124
-3.6183615	Б	-0.18605062
-3.3540223	Ѝ	-0.36310008
-3.3161242	×	-0.20616552
-3.7956634	̉	-0.18006124
-3.3955464	˦	-0.37110212
-3.3161242	ϟ	-0.32629293
-3.5510693	Ћ	-0.18006124
-3.3540223	Ξ	-0.3322838
-3.9218163	ͅ	-0.32347018
-4.100346	ͱ	-0.18006124
-3.6980267	ʯ	-0.20567659
-3.6183615	;	-0.18006124
-3.139631	χ	-0.38790587
-3.5510693	á	-0.18006124
-3.441465	̆	-0.26856723
-3.5510693	̥	-0.3128198
-4.100346	ɝ	-0.18006124
-3.3955464	ǃ	-0.24706554
-3.3161242	Ϗ	-0.48123932
-3.3955464	Ќ	-0.3449227
-3.3540223	ȓ	-0.45373738
-3.3955464	˰	-0.19497256
-3.3955464	ɖ	-0.3291671
-3.3540223	Ψ	-0.20348333
-3.9218163	ϥ	-0.18006124
-4.100346	ʅ	-0.1939624
-3.3161242	ϴ	-0.21172167
-3.7956634	Ϋ	-0.19553477
-3.6980267	̙	-0.84634894
-3.9218163	Χ	-0.27325067
-3.139631	̵	-0.238928
-3.6183615	ϊ	-0.245873
-3.441465	Џ	-0.19553477
-3.2812693	ˢ	-0.4563828
-3.441465	Ț	-0.3159876
-3.5510693	Θ	-0.31664187
-3.9218163	Х	-0.28492507
-3.7956634	Ѓ	-0.1939624
-3.6980267	Й	-0.18006124
-3.3161242	ɠ	-0.21041413
-3.441465	˝	-0.27710083
-3.249005	̲	-0.7971742
-3.7956634	˶	-0.18006124
-3.7956634	ǝ	-0.18006124
-3.9218163	Ɛ	-0.29383034
-3.218973	ƅ	-0.2089582
-3.3161242	М	-0.39835992
-3.218973	ζ	-0.2035876
-3.9218163	¬	-0.42196426
-3.3161242	˻	-0.1907147
-3.6183615	͠	-0.339504
-3.7956634	Β	-0.21041413
-4.0019712	˪	-0.18006124
-3.9218163	ν	-0.44840893
-3.5510693	ɯ	-0.26619008
-3.7956634	ʖ	-0.27172962
-3.9218163	φ	-0.20005898
-3.441465	Ѕ	-0.27961427
-4.0019712	ι	-0.18006124
-3.9218163	̻	-0.32347018
-3.5510693	ŷ	-0.18006124
-3.6980267	ͭ	-0.23855329
-3.6183615	ύ	-0.20348333
-3.9218163	ϗ	-0.18006124
-3.249005	͙	-0.37016067
-3.3955464	̍	-0.29371122
-3.5510693	΃	-0.5955832
-3.9218163	ȃ	-0.18006124
-3.218973	ƣ	-0.25787747
-3.6183615	ί	-0.19553477
-3.6980267	ɋ	-0.28438348
-3.6183615	ʌ	-0.18006124
-3.6980267	ʭ	-0.20832323
-3.441465	˥	-0.20832323
-3.441465	͸	-0.24253051
-3.5510693	И	-0.20832323
-3.6980267	Ȗ	-0.3050863
-3.4928186	α	-0.3034808
-3.5510693	ʬ	-0.18006124
-3.9218163	Ϯ	-0.18006124
-3.2812693	͟	-0.34288275
-3.0937934	ό	-0.2690618
-3.6980267	Т	-0.1975083
-3.9218163	ω	-0.21471773
-3.441465	̴	-0.18006124
-4.0019712	Ȟ	-0.18006124
-3.9218163	ϛ	-0.18006124
-3.3955464	ȵ	-0.3798508
-3.441465	͋	-0.18006124
-3.9218163	̎	-0.32347018
-3.4928186	ϰ	-0.44934192
-3.3955464	̳	-0.32706594
-3.7956634	ˉ	-0.18006124
-3.6183615	υ	-0.21834046
-3.6980267	ʒ	-0.18006124
-3.7956634	΢	-0.21568577
-3.6183615	ɟ	-0.3128198
-3.3955464	ʄ	-0.20832323
-3.4928186	̽	-0.25772333
-4.100346	̨	-0.18006124
-4.100346	Н	-0.18006124
-3.6980267	˙	-0.18006124
-3.441465	ϣ	-0.22824098
-3.9218163	ϐ	-0.32347018
-3.7956634	ʹ	-0.18006124
-3.9218163	З	-0.22824101
-3.6183615	Р	-0.20348333
-4.0019712	ͫ	-0.18006124
-3.6183615	Ǿ	-0.62450016
-3.441465	ͣ	-0.44934192
-3.9218163	͏	-0.22824101
-4.100346	Ϟ	-0.2829408
-3.7956634	̭	-0.2544958
-4.100346	Ι	-0.18006124
-3.9218163	͈	-0.18006124
-3.5510693	˛	-0.18006124
-4.100346	Ɋ	-0.18006124
-4.100346	͂	-0.18006124
-4.100346	Ⱦ	-0.18006124
-4.100346	Ͻ	-0.18006124
-4.100346	ʸ	-0.18006124
-4.100346	̷	-0.18006124

\2-grams:
-1.4978266	w </s>
-1.6062165	 </s>
-2.1632538	 </s>
-2.1034133	à </s>
-1.7816663	³ </s>
-2.1416852	а </s>
-1.2384275	ñ </s>
-1.2669489	Ò </s>
-1.4966998	Ȧ </s>
-2.3147533	u </s>
-1.9938302	ǈ </s>
-0.8846122	τ </s>
-1.6943489	ɂ </s>
-1.3475995	б </s>
-2.1755214	ş </s>
-2.3080077	g </s>
-0.9235723	Ĩ </s>
-1.3046818	ʥ </s>
-2.3880231	 </s>
-2.0672016	Ã </s>
-1.6165589	Ø </s>
-1.6570605	м </s>
-1.2539502	й </s>
-2.2272089	в </s>
-2.1563363	ŉ </s>
-1.5233995	n </s>
-1.6039095	 </s>
-1.8171479	Ǽ </s>
-1.480484	Ј </s>
-1.0476336	Ŋ </s>
-1.955427	д </s>
-1.504792	y </s>
-2.4952743	 </s>
-1.4339409	Ы </s>
-1.7909007	Ǌ </s>
-1.9934686	л </s>
-1.7029574	ʫ </s>
-1.9093897	¶ </s>
-1.7726685	Ɗ </s>
-1.4335415	¤ </s>
-1.1102049	 </s>
-1.5395426	ŧ </s>
-1.1822969	Š </s>
-2.0167258	е </s>
-1.9799877	í </s>
-1.8717395	 </s>
-1.6825172	Ǟ </s>
-1.4830503	Ю </s>
-1.6585326	Ƀ </s>
-1.5096322	Ȕ </s>
-1.6012368	ʼ </s>
-1.6599355	 </s>
-1.4945977	þ </s>
-1.8744239	 </s>
-1.444136	± </s>
-1.8028848	Я </s>
-1.3934183	x </s>
-2.164476	 </s>
-1.9075128	ź </s>
-1.704334	h </s>
-2.0321488	° </s>
-2.0842848	v </s>
-1.5976114	 </s>
-1.7188245	 </s>
-1.8139604	Ɲ </s>
-1.3008244	ğ </s>
-1.7633951	т </s>
-1.8297161	 </s>
-1.6929315	­ </s>
-1.4617732	 </s>
-1.9167901	Ų </s>
-1.5992248	ǟ </s>
-2.0493302	 </s>
-1.8326786	ŵ </s>
-1.7063212	ʑ </s>
-2.1669784	Ď </s>
-1.7334375	Ǳ </s>
-1.7449746	ĩ </s>
-2.1597826	´ </s>
-1.591837	ł </s>
-0.8319165	Þ </s>
-1.7765607	Ą </s>
-1.4775466	г </s>
-1.0657307	Ŕ </s>
-0.9993345	õ </s>
-2.0278416	ú </s>
-1.3725395	ώ </s>
-2.1052077	Ь </s>
-1.8501565	Ĭ </s>
-1.8951414	ø </s>
-1.305563	¹ </s>
-2.0999591	Ü </s>
-1.2682122	} </s>
-1.0357457	ǰ </s>
-2.2111933	e </s>
-1.025396	ǥ </s>
-1.2084316	Ž </s>
-1.8298464	 </s>
-1.6289344	Ç </s>
-1.9363225	© </s>
-1.4889469	 </s>
-1.7426171	 </s>
-1.7983239	ë </s>
-2.070451	¢ </s>
-1.9770943	и </s>
-1.3001113	ǩ </s>
-2.0901945	i </s>
-0.8211551	ϭ </s>
-2.2513583	¯ </s>
-1.8505476	ƃ </s>
-1.5239426	ŏ </s>
-1.6266079	ŝ </s>
-2.137305	m </s>
-1.7695185	Ö </s>
-1.5525398	 </s>
-1.6337299	ƕ </s>
-1.7949994	Ĕ </s>
-1.2685686	ƴ </s>
-1.7987688	Ó </s>
-1.3642288	Ʃ </s>
-1.9554219	r </s>
-1.27044	È </s>
-1.3235973	ȥ </s>
-1.8935236	Ȩ </s>
-1.7277453	œ </s>
-1.4667587	Ɖ </s>
-1.2887301	 </s>
-1.8038324	˃ </s>
-1.5285591	Ϸ </s>
-1.6349846	ż </s>
-2.1244123	â </s>
-1.1846249	ʞ </s>
-1.8627093	¾ </s>
-2.043528	к </s>
-1.0497671	ƽ </s>
-2.0612388	ĳ </s>
-1.3294036	˴ </s>
-1.4665478	¼ </s>
-1.3522483	Ȼ </s>
-1.6466584	ϱ </s>
-1.9027995	 </s>
-1.6907412	ʠ </s>
-1.9038677	Ġ </s>
-1.9930162	ō </s>
-1.2639465	ǀ </s>
-1.6730249	ą </s>
-1.8270916	Ȃ </s>
-1.8167028	Ƅ </s>
-1.5781374	® </s>
-2.2496576	Э </s>
-1.7643954	Î </s>
-1.5731049	 </s>
-1.3005618	è </s>
-1.5188439	ϡ </s>
-0.9625713	ǎ </s>
-2.268329	Æ </s>
-1.7037152	¦ </s>
-1.274355	ŕ </s>
-1.3048469	 </s>
-1.7502376	ă </s>
-1.51594	ǽ </s>
-1.7143934	Į </s>
-1.2174242	ɸ </s>
-1.1816099	ʨ </s>
-1.304329	ʘ </s>
-1.4255872	ϧ </s>
-0.94399047	ΐ </s>
-1.2629251	˅ </s>
-1.9368514	p </s>
-1.2419575	ŭ </s>
-1.9645901	ć </s>
-1.6045594	ȭ </s>
-1.5534251	č </s>
-1.4865793	Ʒ </s>
-1.3725395	Ή </s>
-1.9308535	ċ </s>
-1.4756658	ŋ </s>
-2.0391877	н </s>
-1.7151272	˒ </s>
-1.3675605	̾ </s>
-1.4312432	ʺ </s>
-1.3906926	͖ </s>
-0.8583022	ň </s>
-1.5901262	ɿ </s>
-1.360136	Ȅ </s>
-1.7444689	ǜ </s>
-1.2463839	ņ </s>
-1.7665772	͍ </s>
-1.5326416	ʗ </s>
-1.2184408	Ķ </s>
-2.0197732	ě </s>
-1.6990684	ȿ </s>
-1.6855183	΁ </s>
-1.8614323	Ś </s>
-1.6210295	Ί </s>
-1.2393271	Ǻ </s>
-1.3244687	Ŧ </s>
-1.7935853	̿ </s>
-1.774514	Û </s>
-1.1829958	ǵ </s>
-1.7893866	Ĵ </s>
-1.8898307	ɔ </s>
-1.3172367	̞ </s>
-1.2387302	˜ </s>
-0.9601095	Ʈ </s>
-1.5734551	˞ </s>
-1.6228263	́ </s>
-1.5595639	Ǉ </s>
-1.6203661	ш </s>
-2.1946852	ġ </s>
-1.5282862	ˡ </s>
-1.8138986	š </s>
-1.9763939	Ǆ </s>
-1.5036788	ʈ </s>
-1.7191508	ſ </s>
-1.334295	ɮ </s>
-1.7731802	Ő </s>
-1.1916764	ο </s>
-1.1704727	͕ </s>
-1.1633074	Ζ </s>
-1.9556425	q </s>
-1.5759343	̡ </s>
-1.3138435	ț </s>
-1.7737275	Ƈ </s>
-1.114637	П </s>
-1.2897947	˖ </s>
-1.792055	ƍ </s>
-1.6678069	Ɯ </s>
-1.71011	Ɨ </s>
-1.3010845	̅ </s>
-1.0607066	ǖ </s>
-1.4516015	Ň </s>
-1.1617608	ˏ </s>
-1.6625172	ư </s>
-1.7576344	ä </s>
-1.795477	Ŭ </s>
-0.98124623	Ŀ </s>
-1.5627431	ȶ </s>
-1.5965481	Ş </s>
-1.4617645	ƌ </s>
-1.3530258	͝ </s>
-1.5465605	ƒ </s>
-1.0564233	ƺ </s>
-1.0863748	Ĥ </s>
-1.7665074	Ǹ </s>
-1.2363007	μ </s>
-1.328435	ə </s>
-1.5670619	ȏ </s>
-1.5304846	ƻ </s>
-1.4991211	ɜ </s>
-1.3980114	ķ </s>
-1.4144287	˘ </s>
-1.3227842	Ϊ </s>
-1.4269857	ǆ </s>
-1.6617904	ƙ </s>
-1.2928885	˔ </s>
-1.6408936	ϻ </s>
-1.5653192	ʁ </s>
-1.1281326	ȴ </s>
-1.2213113	̣ </s>
-1.4493346	Đ </s>
-1.628304	ɢ </s>
-2.121195	² </s>
-1.8242824	ȟ </s>
-1.6032796	ʍ </s>
-1.3301874	ʣ </s>
-1.5352558	Д </s>
-1.4866071	ǂ </s>
-1.1121094	̚ </s>
-1.3670064	î </s>
-1.5911349	ɓ </s>
-1.2699527	Ƌ </s>
-1.334295	˚ </s>
-1.6115308	ʶ </s>
-1.6589392	Ƴ </s>
-1.5757334	ɛ </s>
-1.5045453	ͤ </s>
-1.6849648	Ŏ </s>
-1.276822	Ͷ </s>
-1.5759566	Ɔ </s>
-1.6855011	Ό </s>
-1.8367093	ʏ </s>
-1.5482712	Γ </s>
-1.6937014	ɺ </s>
-1.3938558	ę </s>
-1.8064836	ͧ </s>
-1.5178285	У </s>
-1.4777598	ɽ </s>
-0.9122793	ē </s>
-1.5358443	ȳ </s>
-1.3968105	ȑ </s>
-1.4114559	ƭ </s>
-1.2094936	Ͳ </s>
-1.5090933	λ </s>
-1.1566758	ħ </s>
-1.6787162	ʎ </s>
-1.7021757	ϙ </s>
-1.6356738	͉ </s>
-1.5630761	ϩ </s>
-1.114637	΍ </s>
-1.2663499	ơ </s>
-1.7965611	ј </s>
-1.4999418	Ύ </s>
-1.5634509	ψ </s>
-1.2606041	ɪ </s>
-1.2252626	Ƞ </s>
-1.319841	ɲ </s>
-1.3312696	΀ </s>
-1.4312432	Ȥ </s>
-1.5369594	ƹ </s>
-1.5036788	ϋ </s>
-1.5862267	ʲ </s>
-1.334295	ɭ </s>
-1.4829925	Π </s>
-1.4407904	ȗ </s>
-1.6100464	Ȣ </s>
-1.112779	Щ </s>
-1.2470263	ȩ </s>
-1.2906836	̓ </s>
-1.4255872	ͯ </s>
-1.3813432	× </s>
-1.3282652	̉ </s>
-1.6552213	˦ </s>
-1.4025857	ʯ </s>
-1.5162396	á </s>
-1.3968105	ɝ </s>
-1.6765648	˰ </s>
-1.0826397	Ψ </s>
-1.6288505	̵ </s>
-1.190335	ϊ </s>
-1.1221192	Х </s>
-1.3675605	Ѓ </s>
-1.3282652	˶ </s>
-1.5232496	ζ </s>
-1.1121094	˻ </s>
-1.2417009	φ </s>
-1.1864365	͙ </s>
-1.3312696	ί </s>
-1.58286	ɋ </s>
-1.3705205	ʭ </s>
-1.4104419	͸ </s>
-0.5775492	α </s>
-1.2867228	ʬ </s>
-1.6754767	ό </s>
-1.3646206	̴ </s>
-1.4265703	̳ </s>
-0.45761114	̨ </s>
-2.4264584	<s> Ʋ
-2.9619064	 Ʋ
-3.1349854	б Ʋ
-2.6557312	é Ʋ
-3.1814423	 Ʋ
-2.4424596	Ŵ Ʋ
-2.8745394	й Ʋ
-2.8563993	n Ʋ
-3.0496006	 Ʋ
-2.1561089	 Ʋ
-2.488215	Š Ʋ
-2.6832051	е Ʋ
-2.3513012	 Ʋ
-2.8186936	Ю Ʋ
-2.6201448	 Ʋ
-2.4924364	ğ Ʋ
-2.6814883	Ď Ʋ
-2.0967104	Ō Ʋ
-2.5406277	Ą Ʋ
-1.705115	Ђ Ʋ
-2.7037318	¢ Ʋ
-2.0518932	Ó Ʋ
-1.8756967	͖ Ʋ
-2.4164488	ě Ʋ
-2.0033312	ɗ Ʋ
-1.9191706	ʊ Ʋ
-2.5551338	ġ Ʋ
-1.9787862	̬ Ʋ
-2.1212904	Ů Ʋ
-1.8065615	Ϊ Ʋ
-2.0360103	ĉ Ʋ
-1.6006355	Ρ Ʋ
-1.4585314	Ѓ Ʋ
-1.7549424	<s> |
-1.4372618	Ʋ |
-2.208389	w |
-1.8505574	 |
-1.7896113	{ |
-1.8383583	 |
-1.6662685	³ |
-2.388904	а |
-2.1833193	ñ |
-1.4434439	j |
-2.155489	б |
-2.3894815	ş |
-1.4765598	g |
-1.9754293	é |
-1.5966841	 |
-2.2751675	Ŵ |
-2.335763	Ã |
-2.1395645	Ø |
-1.9383541	й |
-1.4767916	ŉ |
-2.2881722	n |
-2.3706768	 |
-1.6704255	 |
-2.4062464	д |
-1.7621888	y |
-1.5927209	 |
-1.948988	л |
-2.061431	¶ |
-1.8625245	Ɗ |
-2.1902401	¤ |
-2.325815	 |
-2.2336726	Š |
-2.0390944	ų |
-1.7185739	 |
-1.7228953	± |
-2.0388553	Я |
-2.0372238	Ė |
-2.0676198	x |
-2.372675	 |
-2.0568395	ź |
-2.1987498	h |
-2.0352967	ж |
-1.5802627	Ÿ |
-1.9355083	 |
-2.2210157	 |
-2.0572007	­ |
-1.9962081	 |
-1.398093	ń |
-2.1484582	ȁ |
-1.7635037	Ų |
-1.821243	 |
-1.9962819	Ď |
-2.07489	´ |
-1.849419	ł |
-1.6816875	Þ |
-2.0480783	ǔ |
-1.8016187	Ō |
-2.0377305	Ą |
-1.9637686	Ŷ |
-2.1419327	г |
-2.020581	Ŕ |
-2.001637	ú |
-1.4161522	ώ |
-2.425695	Ь |
-2.2271106	Ü |
-1.9905242	} |
-2.0924923	ƫ |
-2.3178573	п |
-1.9178455	ϕ |
-2.248621	¸ |
-2.3514118	ó |
-2.214757	 |
-1.684373	Ç |
-2.283882	© |
-2.077109	 |
-2.1951056	¢ |
-1.7322028	ǩ |
-2.4382596	i |
-1.9498429	ƃ |
-1.7125878	ŝ |
-2.1317532	Ö |
-2.3087072	 |
-1.5662779	İ |
-1.0340165	ā |
-2.148882	ƕ |
-2.1347497	Ñ |
-2.0065958	ƴ |
-1.732819	Ó |
-2.0822062	r |
-1.2384876	ȥ |
-2.030478	Ŝ |
-1.5918882	Ϸ |
-2.051793	â |
-1.2263618	ŗ |
-1.9286575	ʞ |
-1.6609823	¾ |
-2.2235925	Ũ |
-1.9131142	Ȼ |
-2.2680986	 |
-2.1446831	ō |
-1.9862585	Ǡ |
-1.5365974	ɷ |
-2.078274	ƨ |
-2.0339954	ģ |
-1.8472152	ǀ |
-1.7339545	ą |
-1.3929502	Ƅ |
-2.455985	 |
-2.092509	è |
-1.2448119	ͺ |
-2.12283	Æ |
-2.0651388	¦ |
-2.0876255	ŕ |
-1.8151536	Į |
-1.4409564	ĺ |
-1.1298773	ʜ |
-1.5428486	ɾ |
-1.8247491	˒ |
-1.9053683	ʗ |
-2.0743172	Ķ |
-1.7374836	ě |
-1.7753744	΁ |
-2.0010614	Ś |
-2.076272	ç |
-2.3498862	ƶ |
-1.4817364	Η |
-2.022396	Ŧ |
-1.6225182	ǵ |
-1.5956333	Ĵ |
-1.877239	ȉ |
-1.8399844	Ƥ |
-2.020005	ƚ |
-2.1129658	q |
-1.8566853	Ƈ |
-1.6224918	ƍ |
-1.91023	̂ |
-1.8203007	ɩ |
-1.81864	ǋ |
-1.0005441	˗ |
-2.1376798	Ň |
-1.1677644	π |
-1.1948414	͵ |
-1.9649814	ˏ |
-1.6094829	ʱ |
-2.0232663	ư |
-1.6236967	Ŭ |
-2.0790353	Ŀ |
-1.9378914	ȶ |
-1.8419861	ƌ |
-1.718068	Ē |
-1.6034597	ƒ |
-1.4280571	ȏ |
-1.7879987	ƻ |
-1.6698201	˘ |
-1.6416459	ȸ |
-1.6182171	̣ |
-1.829691	Đ |
-1.9984839	ɢ |
-1.751958	ɦ |
-2.2868013	² |
-1.8806689	Ǥ |
-2.0487285	ő |
-1.8383558	Ȯ |
-1.769076	Ŏ |
-1.7707616	̜ |
-1.4628903	Ͳ |
-2.064165	ʇ |
-1.6980082	ȝ |
-1.5478565	ː |
-1.7165713	͹ |
-1.3474567	Ɂ |
-1.4420497	ʋ |
-1.664696	ʲ |
-1.8829603	Ź |
-1.695025	Ȣ |
-1.3359463	Ɛ |
-1.6313541	ƅ |
-1.5886765	ζ |
-1.5414906	Β |
-1.3256048	ŷ |
-1.5095922	͋ |
-1.1585051	| w
-1.5065626	³ w
-2.7143404	а w
-1.6314492	Ò w
-1.7967372	u w
-2.0827618	å w
-2.643117	д w
-2.5831933	y w
-1.8605592	¶ w
-0.9842416	е w
-1.9781466	Ȕ w
-2.3326619	þ w
-1.9797688	l w
-1.6004381	s w
-2.6221244	h w
-2.0394785	з w
-2.3215315	° w
-0.57950056	Ѐ w
-2.2851515	v w
-1.5762675	т w
-0.81903166	É w
-2.250104	« w
-0.9754675	ł w
-2.0488126	г w
-1.7784508	Ŕ w
-1.3651977	Ĭ w
-2.551598	Ç w
-1.928548	© w
-1.5449555	Ľ w
-2.1162071	 w
-1.6300637	и w
-2.628389	µ w
-1.4298543	i w
-2.0525322	͆ w
-2.228126	Ê w
-1.3950814	È w
-2.399431	 w
-2.604313	к w
-0.73586607	ɫ w
-1.4688467	 w
-1.6876987	~ w
-2.5012102	ą w
-1.5837725	đ w
-1.463014	ŕ w
-2.1824448	p w
-2.3839114	Ú w
-1.6311935	ˈ w
-1.5205714	ш w
-1.3645192	ɧ w
-1.9238656	q w
-1.4927855	˫ w
-0.45512158	Ɯ w
-1.8334697	ƛ w
-1.7019587	С w
-1.7181926	Ǘ w
-1.3633969	˷ w
-2.1424139	Ĳ w
-1.8063921	ƙ w
-0.73606527	ƈ w
-1.2380475	̐ w
-1.1134472	ǂ w
-1.0848159	Ū w
-1.9161279	Ϻ w
-1.5563139	ǫ w
-1.2957335	ƪ w
-1.979399	ј w
-1.2380475	͠ w
-2.823435	w А
-3.2769184	{ А
-2.7954407	 А
-2.6032627	м А
-2.9444094	й А
-2.3909113	 А
-2.6465788	 А
-2.8858955	± А
-2.4446342	ŵ А
-2.5243692	´ А
-2.3461838	ł А
-2.8892086	} А
-2.6237483	Ð А
-1.8945854	Ʃ А
-2.1877284	ƽ А
-2.9000375	 А
-2.014553	Ʒ А
-2.7188325	ƶ А
-2.2459695	ſ А
-1.3669635	ʌ А
-1.6794134	| 
-1.4872011	w 
-0.1856286	А 
-2.3069465	 
-1.8576307	³ 
-2.0374355	Ȧ 
-1.5625495	u 
-0.9719944	Ͽ 
-2.2067115	t 
-2.0818634	б 
-1.8140904	Ĩ 
-1.3330421	ʥ 
-1.11414	Ø 
-1.3593563	ɣ 
-1.7772374	й 
-1.7632973	ƥ 
-2.2114995	k 
-1.0400153	Ǽ 
-2.3662608	y 
-1.46212	Ы 
-2.10544	л 
-0.84638727	Ɗ 
-1.7464219	¤ 
-2.3011718	 
-1.3282636	θ 
-1.7517145	Ъ 
-1.9843228	е 
-1.9862853	 
-2.1384566	ɱ 
-0.99728686	Ȕ 
-1.5545917	 
-0.9312026	Ϩ 
-1.3147556	þ 
-1.381399	Я 
-2.3811944	l 
-1.9031469	x 
-2.338635	s 
-1.0623133	h 
-1.2901536	ж 
-1.0158232	° 
-1.152514	v 
-2.002624	ű 
-2.2852545	 
-1.0859807	 
-1.4591265	į 
-1.5770718	½ 
-0.89235175	т 
-1.7315862	 
-1.9067957	É 
-2.2891445	 
-2.0375006	Ų 
-0.97197944	« 
-1.4223694	 
-0.89998096	ς 
-1.2715439	ĩ 
-2.288857	´ 
-1.4550829	ł 
-1.0794934	ƞ 
-0.38733554	ǔ 
-1.144369	Ā 
-1.9607148	г 
-2.0042012	Ŕ 
-2.097999	ė 
-1.2632235	Ь 
-1.4408795	Ĭ 
-2.022551	ø 
-1.1532195	п 
-1.9880184	¸ 
-1.6448108	ó 
-0.98669314	Ǎ 
-0.6901062	Â 
-1.3408489	Ç 
-1.0519388	© 
-1.1159346	 
-1.393414	ë 
-1.8339195	ˤ 
-1.4983859	Ľ 
-1.3072028	и 
-1.7121087	i 
-1.1885707	ƃ 
-1.0817333	Ö 
-1.6865935	 
-1.1900113	Ĕ 
-1.4855801	ƴ 
-0.98981106	È 
-1.7846937	 
-1.6363194	к 
-1.218924	Ģ 
-0.60564435	ĳ 
-1.6331106	ʝ 
-2.3254194	¡ 
-1.0504376	Ο 
-1.0020452	 
-1.5828185	̏ 
-2.1365056	 
-0.9169449	Ʊ 
-1.3970594	ů 
-0.8338515	ʮ 
-0.724548	Ȃ 
-1.0195082	¦ 
-1.3701427	΂ 
-1.8076495	ŕ 
-1.3980696	ʨ 
-0.78311354	Ǯ 
-1.1399215	ʘ 
-0.9894947	Ɏ 
-2.238108	Ú 
-1.4154341	ć 
-0.78945166	č 
-1.1600173	н 
-1.8114338	˒ 
-0.75957173	͖ 
-1.9714813	Ǔ 
-0.58817935	ɿ 
-0.5301535	ǜ 
-1.8271291	ņ 
-0.9375346	͍ 
-1.2381752	Ķ 
-1.9560274	ǯ 
-1.4113603	º 
-1.3226953	Ȍ 
-0.31236994	̿ 
-2.2174966	÷ 
-1.9719069	ш 
-1.8992143	š 
-0.7097031	ȧ 
-1.2615498	˱ 
-0.48075932	ȇ 
-2.082882	ſ 
-1.3701427	ɮ 
-1.6422458	q 
-2.0827694	 
-2.0314755	Ɯ 
-1.0351921	ǌ 
-1.070337	Õ 
-0.97354037	ƛ 
-1.3350081	ä 
-1.070782	ã 
-1.909006	Ŭ 
-0.31929147	С 
-0.11275425	Ϝ 
-0.16071726	͒ 
-0.52691406	Ǘ 
-1.4080782	ȣ 
-0.8071145	͘ 
-1.1461654	ɜ 
-1.1066325	˷ 
-2.0342822	Ĳ 
-1.3928936	Г 
-0.50925624	ǆ 
-1.7322136	ƙ 
-1.6270097	Ȳ 
-0.577052	ƈ 
-0.42575747	Ƕ 
-1.8008897	ɀ 
-0.3961039	ʕ 
-0.43772942	ˇ 
-0.5896175	˼ 
-1.636776	Ǵ 
-1.4436156	ͼ 
-1.1352043	Ǒ 
-0.83025444	ϔ 
-0.77538985	ǂ 
-1.5799155	σ 
-0.8070529	Ș 
-0.8548125	δ 
-0.48736998	ù 
-0.6942244	̦ 
-0.7366771	Ϻ 
-1.4633873	̯ 
-1.4417872	ȑ 
-2.0520396	ʇ 
-0.923118	ħ 
-1.1681588	В 
-1.2736201	ƪ 
-1.5548501	ј 
-0.45720547	Ά 
-1.705591	ɶ 
-0.693905	Ź 
-1.4816667	ȗ 
-1.0284458	К 
-0.586393	ϟ 
-0.44891578	Ξ 
-1.4454515	ʯ 
-1.7632973	˰ 
-1.6425982	ˢ 
-0.5826405	Ț 
-0.29121214	¬ 
-0.6595993	ɯ 
-1.5170902	ʖ 
-1.3774889	Ѕ 
-0.7566485	͙ 
-1.658644	̍ 
-0.5877612	ɋ 
-0.83025444	͸ 
-0.9357	Т 
-0.4830287	̳ 
-0.52232826	З 
-0.46255383	Ι 
-1.8356463	<s> {
-1.9733233	w {
-1.0803685	 {
-2.104498	 {
-2.1495852	à {
-2.2715447	а {
-1.8581568	ñ {
-1.5619004	Ò {
-0.9521267	Ȧ {
-2.0358655	ï {
-1.7193928	Ͽ {
-2.1338198	j {
-1.7192932	ɂ {
-1.5528401	б {
-1.5393605	ş {
-2.199248	g {
-2.1172223	£ {
-1.7638141	Ĩ {
-1.6471286	ʥ {
-1.8436868	 {
-1.667364	Ã {
-1.6717254	м {
-1.908603	ɣ {
-1.6352565	й {
-2.1180587	в {
-1.7017154	ƥ {
-1.5738306	n {
-1.710111	 {
-1.4961396	Ј {
-2.139203	 {
-2.1097715	д {
-1.1787527	y {
-2.5499117	 {
-1.7054118	Ы {
-2.1866434	л {
-1.9464765	¶ {
-1.3517944	¤ {
-1.3174235	 {
-1.5552887	ŧ {
-1.4759947	Š {
-2.1943402	е {
-0.9505777	í {
-1.5296524	Ǟ {
-1.9174763	Ю {
-1.4061246	ʼ {
-1.8362865	 {
-2.0278568	þ {
-1.9022819	 {
-1.5746256	± {
-2.2184205	Я {
-2.2307541	x {
-1.4977387	 {
-1.5370806	ź {
-2.0897465	h {
-2.0683186	° {
-2.3024495	v {
-2.0399446	Ÿ {
-2.0055528	 {
-2.0886798	 {
-1.0879385	Ɲ {
-1.1334385	ğ {
-2.0526323	½ {
-1.9372615	т {
-2.0563726	 {
-2.1530738	 {
-1.5197654	Ų {
-1.4170159	ǟ {
-2.0926616	 {
-1.4416506	ʑ {
-1.3987069	Ď {
-1.2787777	Ǳ {
-1.7629385	ĩ {
-2.1959534	´ {
-1.6064352	ł {
-1.6406634	Þ {
-1.9413792	Ō {
-1.7977557	Ą {
-1.234781	Ŷ {
-0.22174482	ͬ {
-2.0438643	г {
-1.9215072	Ŕ {
-1.6493342	ĭ {
-1.5006943	ú {
-2.0807097	Ĭ {
-0.9630466	Ü {
-1.7481258	} {
-1.6627958	ǰ {
-1.692894	̀ {
-1.8838696	Ű {
-2.182699	п {
-1.831625	ϕ {
-1.2148752	Ž {
-2.0938036	 {
-1.3723893	Ç {
-1.8342216	Ð {
-2.1475549	© {
-1.7604089	 {
-2.1052408	 {
-1.8238883	ë {
-1.9557128	¢ {
-2.0062594	и {
-0.93621415	ǩ {
-1.5903877	ϭ {
-2.3014317	¯ {
-1.7337022	ŏ {
-2.0191987	Ö {
-1.4959506	 {
-2.0241141	ƕ {
-1.5999746	Ñ {
-1.4400136	Ƃ {
-1.5177329	Ó {
-1.843016	r {
-2.0914755	È {
-1.1033938	ȥ {
-1.6821483	Ŝ {
-1.4728521	œ {
-1.6679491	Ɖ {
-1.893923	 {
-1.8348488	˃ {
-1.5662235	ʀ {
-1.6631336	͜ {
-1.8179611	ż {
-1.404224	â {
-2.248515	ŗ {
-1.5724219	ʞ {
-2.2252588	к {
-1.9621848	Ģ {
-1.2801	ƽ {
-1.121012	˴ {
-2.1585066	¼ {
-1.3635768	Ȼ {
-1.7159777	ʠ {
-0.97504914	̏ {
-1.7664461	Ġ {
-0.8962346	ō {
-1.6377386	Ǡ {
-1.9516883	ƨ {
-1.7689445	ǀ {
-2.1505158	ą {
-1.8534439	Ȃ {
-1.8406932	Ƅ {
-1.8495574	® {
-1.8625406	Э {
-2.201358	Î {
-1.5836359	 {
-1.0159922	è {
-1.5364374	ϡ {
-1.2793534	ǎ {
-1.9512143	¦ {
-1.3451233	΂ {
-1.8040335	Ƿ {
-2.2070398	 {
-1.9981455	ă {
-0.9901856	ǽ {
-1.740056	Į {
-1.224521	ɸ {
-1.4061934	ĺ {
-1.4400136	ϧ {
-2.1292303	p {
-0.49244502	͎ {
-1.7328541	ŭ {
-2.0070205	ć {
-1.4693317	˸ {
-1.0670451	Ä {
-1.6251817	ȭ {
-1.3797538	̾ {
-2.123374	с {
-1.6057316	ɿ {
-1.3678064	Ȅ {
-1.576463	ǜ {
-1.0606599	ņ {
-1.550079	ʗ {
-1.1093183	Ϳ {
-1.9744754	Ķ {
-1.6884701	ě {
-1.7420065	Ƣ {
-1.8958495	Ś {
-1.7032497	Ȏ {
-1.7473755	Ǻ {
-2.1955774	ƶ {
-1.8080095	̿ {
-1.6461903	Û {
-1.8583878	ǵ {
-1.3507525	Ĵ {
-1.6071472	˭ {
-1.5553406	ś {
-1.7447561	ʊ {
-1.5929453	˞ {
-1.4350119	ɼ {
-0.95695305	Ǉ {
-1.1053722	ġ {
-1.7247577	ˡ {
-1.8386666	š {
-1.524578	ȇ {
-1.4651414	ƚ {
-0.77714765	ϓ {
-2.052273	Ǧ {
-1.0147899	Ő {
-1.5388032	ο {
-1.8706404	͕ {
-1.8403043	Ζ {
-1.3237193	ț {
-0.731283	Ʉ {
-2.118221	Ƈ {
-1.0321093	ɞ {
-1.8244962	ƍ {
-1.8143195	̂ {
-1.7816985	Ī {
-1.4490863	ɩ {
-1.6299114	ǌ {
-1.5159637	͵ {
-1.9065373	ˏ {
-1.5723189	Ŭ {
-1.5382822	Ŀ {
-1.6052717	Ů {
-1.5791645	ȶ {
-1.103939	ʐ {
-1.7796111	ϫ {
-0.34653226	Ş {
-1.2702914	ƌ {
-1.3386574	Ē {
-0.8567494	ƒ {
-1.4757979	ƺ {
-1.5813342	̮ {
-1.1200011	̌ {
-1.2504429	Ǹ {
-1.4699782	͒ {
-1.8371713	ȏ {
-1.1501728	ƻ {
-1.6073687	ķ {
-1.6232563	˘ {
-1.6466594	Ϊ {
-1.1218681	ϻ {
-1.1368709	ǡ {
-1.8460649	ʁ {
-1.6619891	ȴ {
-1.2736453	ɢ {
-1.4864465	ˇ {
-1.6932768	̒ {
-1.5852548	ɨ {
-1.7926472	Ǥ {
-1.8569826	ȟ {
-1.8139577	» {
-1.3396995	Ǒ {
-1.1997046	σ {
-1.2300487	Ș {
-1.6110495	ɓ {
-1.7635074	Ƌ {
-1.1228547	ș {
-1.6201878	ˠ {
-1.5927689	ɛ {
-1.8991846	Ư {
-1.4961396	Ͱ {
-1.0435574	Ɔ {
-0.71521276	ʏ {
-1.5655642	Γ {
-1.8804735	ę {
-1.5327349	У {
-1.2115883	ƭ {
-1.7410376	ʧ {
-1.7417321	Ͳ {
-1.3925766	ϲ {
-1.5553714	̸ {
-1.4051956	ʎ {
-1.5703394	ȼ {
-0.2757244	ϙ {
-1.6570482	͉ {
-0.44151196	ʵ {
-1.5813342	ϩ {
-1.4558944	ơ {
-1.1101004	Ύ {
-1.3927158	͌ {
-1.6024959	ɪ {
-1.5792428	Ƞ {
-1.4961396	Ρ {
-1.3424317	΀ {
-1.5553406	ƹ {
-1.5200114	ϋ {
-1.2830322	ʲ {
-0.690521	Ź {
-1.3451233	ɭ {
-1.189835	Ǣ {
-1.7552619	ȗ {
-1.2971534	Ϡ {
-1.4290216	ȫ {
-1.6731017	˹ {
-0.53379905	ɡ {
-1.6207936	̓ {
-1.644549	Б {
-1.6962498	× {
-1.6710131	˦ {
-1.5340844	á {
-1.6375525	ǃ {
-1.7017154	˰ {
-1.4140888	ɖ {
-1.5991926	ɋ {
-1.5649714	Ȗ {
-0.96035534	ό {
-1.3771302	̴ {
-0.916653	ϛ {
-1.0637543	̳ {
-2.3815136	<s> 
-2.3450322	w 
-2.6656103	 
-1.1305857	{ 
-2.2336204	а 
-2.3233736	ñ 
-2.5123525	ï 
-2.235315	j 
-2.8813887	б 
-2.3367283	ş 
-2.409367	g 
-2.4288774	£ 
-2.1196914	 
-2.029417	Ã 
-1.9161079	 
-1.577879	Ј 
-2.8534343	 
-2.593555	д 
-2.751418	y 
-2.977738	 
-2.1864684	Ы 
-2.0195353	Ǌ 
-1.6240256	¶ 
-2.071213	Š 
-2.7157865	 
-1.8333492	Ǟ 
-2.0010126	 
-2.6209054	± 
-2.4177885	Ė 
-1.8376032	ź 
-2.3649046	 
-2.0399325	Ɲ 
-2.3989499	ğ 
-2.5165532	 
-2.422124	´ 
-2.2765021	Þ 
-2.4204578	Ą 
-2.5207903	г 
-1.7088377	Ь 
-2.6483436	} 
-2.3421617	 
-2.4532678	Ð 
-1.955718	ʩ 
-2.1286786	ǩ 
-2.6691678	¯ 
-1.2504529	˽ 
-2.0039394	Ĕ 
-2.3579192	È 
-2.2821736	ż 
-2.1457355	â 
-2.635921	ŗ 
-0.7038926	Ũ 
-0.5790031	ɇ 
-2.3950884	Ġ 
-2.0998056	ģ 
-2.4594738	ą 
-2.3462038	Э 
-2.6620643	 
-1.9671137	ǽ 
-2.44483	p 
-2.055307	Ǔ 
-0.9343333	ç 
-2.2573223	ƶ 
-2.417181	Û 
-0.8400086	ɔ 
-2.469385	ġ 
-2.2289283	Ƥ 
-1.3160224	Ǧ 
-1.6305245	ο 
-0.7861668	Ň 
-2.0250232	ȶ 
-1.769922	Ϊ 
-1.7756048	ϻ 
-1.4398543	ɦ 
-2.054558	ȟ 
-0.60709864	Д 
-1.6826675	ɛ 
-1.8340988	̜ 
-1.8310561	ϲ 
-1.577879	Ρ 
-1.5163451	Ȥ 
-1.424102	˹ 
-1.5475405	˻ 
-0.76449275	ι 
-1.3495301	ŷ 
-0.93770015	ϛ 
-2.040288	<s> à
-2.0338037	Ʋ à
-2.106133	 à
-2.744801	{ à
-2.0052931	 à
-2.4505248	à à
-2.6503954	а à
-2.3156402	ǈ à
-2.2679353	j à
-2.3041384	б à
-2.3969762	g à
-2.066589	 à
-1.9297191	Ã à
-2.6389678	й à
-2.4209173	n à
-2.7121801	 à
-2.6152024	 à
-2.7211	y à
-2.9450986	 à
-2.1663659	¶ à
-2.4658973	 à
-2.4617012	 à
-2.375767	 à
-2.1034153	Ƀ à
-2.0470462	ʼ à
-2.35203	 à
-2.5918453	± à
-2.2962313	Я à
-2.2875707	 à
-2.1592774	ź à
-2.3065982	Ÿ à
-2.3887434	т à
-2.5185094	Ď à
-2.757885	´ à
-2.3248181	Ŷ à
-2.4993901	г à
-2.0830934	ú à
-2.61413	Ь à
-2.2186737	¹ à
-1.3888184	Ű à
-2.557533	 à
-2.4814827	Ç à
-2.156567	Ð à
-2.5872457	и à
-2.2250922	 à
-1.9937782	Ĕ à
-1.5864546	Ñ à
-2.0903614	ƴ à
-1.7798913	Ó à
-2.4381423	ȥ à
-2.1348338	â à
-2.3518684	¾ à
-2.0901258	ƽ à
-2.0307636	Ũ à
-2.4367032	¼ à
-2.2492716	ō à
-1.887882	ƨ à
-2.5368567	Ƅ à
-1.6432221	Î à
-2.6351557	 à
-2.454016	è à
-2.0334904	ǎ à
-2.6344054	Æ à
-1.9783502	Ƿ à
-1.4386873	Ϛ à
-2.215241	ă à
-1.9596211	ǽ à
-2.2221272	ɸ à
-2.01189	ʨ à
-1.9114016	˅ à
-1.4403032	Ή à
-2.0472004	Ǔ à
-2.0583384	ň à
-1.7575016	Ś à
-1.3479223	Φ à
-2.5061493	ƶ à
-2.0144866	ǵ à
-1.9855666	Ĵ à
-2.0114963	Ʈ à
-1.8344705	ˡ à
-2.1691456	ſ à
-1.9952502	Ζ à
-2.1178439	Ɯ à
-2.107424	Ɵ à
-2.1283233	ư à
-2.0435994	Ů à
-2.0243256	ȏ à
-1.8038651	̒ à
-1.3479223	͇ à
-1.9171536	Ƌ à
-1.8367007	ʎ à
-1.7477369	Ɂ à
-1.6555419	ƣ à
-1.3479223	Т à
-1.0584475	ˉ à
-1.4760864	˛ à
-1.7794473	{ ³
-1.2722839	à ³
-3.274172	g ³
-1.8768823	 ³
-1.5408704	É ³
-1.8203921	´ ³
-0.93415076	Ü ³
-1.380744	˲ ³
-0.8244413	ŏ ³
-1.1794798	ɚ ³
-1.8246632	Ȏ ³
-0.94319737	ǁ ³
-1.8613796	ȓ ³
-2.9592552	| а
-1.9910914	w а
-2.062113	 а
-1.047727	³ а
-2.723278	б а
-2.44341	n а
-2.6134474	k а
-2.859432	 а
-1.2359253	 а
-0.10964049	Ъ а
-2.5382433	е а
-1.5947222	 а
-2.31258	Я а
-1.8419294	x а
-2.444422	s а
-2.487548	 а
-2.075584	į а
-1.7047662	т а
-2.5218751	 а
-2.2541058	ȁ а
-1.8648533	z а
-1.2956916	 а
-2.2138977	ĩ а
-2.7953405	´ а
-2.5252	г а
-2.2178936	ė а
-1.9504188	Ь а
-1.3887047	ø а
-1.8741473	e а
-2.4697342	п а
-2.34529	 а
-1.8504146	Ç а
-2.4375944	© а
-2.1597145	 а
-1.9702029	ë а
-1.5417948	ˤ а
-1.4877963	 а
-2.6183186	и а
-2.250451	Ö а
-1.7333302	 а
-2.0060005	Ĕ а
-2.361354	È а
-1.9173459	œ а
-2.0870128	к а
-2.1593914	Ģ а
-1.0252539	ĕ а
-1.9328363	~ а
-2.172855	ą а
-1.2626011	đ а
-1.3835275	p а
-0.90899503	Ɣ а
-2.5562136	н а
-1.2252986	˕ а
-1.4902251	ɬ а
-1.5003309	с а
-2.2141502	  а
-1.9366796	ǘ а
-1.0701687	Ƣ а
-1.7905227	÷ а
-1.654398	ś а
-1.7441634	ш а
-2.183532	Ɠ а
-2.2159376	ǣ а
-1.883334	ď а
-1.9291368	 а
-1.6276648	· а
-2.0803976	ǌ а
-1.5193229	Ň а
-1.6728822	ä а
-1.7960974	ƙ а
-1.8557287	ɀ а
-0.8123737	ʟ а
-2.4242294	² а
-0.66587853	ͳ а
-2.0426254	ù а
-1.9966139	¿ а
-1.5586187	ɏ а
-2.1360662	ʇ а
-1.2929872	έ а
-1.3993411	Ϋ а
-0.74633163	ͭ а
-0.93790084	ϗ а
-1.6403357	Ȗ а
-0.5263135	͏ а
-2.3069935	³ ñ
-2.2586746	а ñ
-1.1256328	Ò ñ
-3.046195	 ñ
-2.3760688	д ñ
-2.4181468	y ñ
-2.4240117	Ы ñ
-2.5731912	л ñ
-2.0943532	е ñ
-2.0309014	 ñ
-2.3548336	Я ñ
-2.1792924	x ñ
-2.8034973	s ñ
-2.6562767	h ñ
-2.5973828	з ñ
-2.4725645	т ñ
-2.2637825	« ñ
-1.7162683	ǟ ñ
-2.4502997	 ñ
-2.1685522	ƞ ñ
-2.594747	г ñ
-2.2866995	¹ ñ
-1.5236335	п ñ
-2.4450307	¸ ñ
-2.2756019	Ç ñ
-2.4965608	© ñ
-1.4450519	 ñ
-2.704104	и ñ
-2.5338094	r ñ
-2.740162	Æ ñ
-2.0254204	Ơ ñ
-1.2240998	ʨ ñ
-2.517472	p ñ
-1.5431589	Ä ñ
-2.6286376	н ñ
-1.9315094	˒ ñ
-1.541407	͍ ñ
-1.1643721	ɔ ñ
-1.9033345	ȧ ñ
-1.7645392	Ţ ñ
-2.2088964	ſ ñ
-1.9328249	q ñ
-2.0581672	Ŭ ñ
-1.693705	μ ñ
-1.4514983	ȣ ñ
-1.7925123	˄ ñ
-1.7284601	ʕ ñ
-1.7940451	Ǒ ñ
-1.3203598	δ ñ
-1.4997841	̯ ñ
-2.1511276	ħ ñ
-0.6598347	ɶ ñ
-1.047244	Ќ ñ
-1.591603	ɠ ñ
-1.56393	ʖ ñ
-2.523939	<s> û
-2.6497064	w û
-2.706267	 û
-2.673097	 û
-2.94982	а û
-2.3672726	ñ û
-2.1787155	Ȧ û
-3.0565865	j û
-2.6191897	б û
-2.3736584	ş û
-2.6859372	 û
-2.5371568	Ã û
-2.5044937	ŉ û
-2.834191	y û
-3.0678196	 û
-2.5820467	Ë û
-2.6816742	Ы û
-2.6273808	¤ û
-2.0238433	ŧ û
-2.5949569	е û
-2.1793616	ų û
-2.7876873	 û
-1.8502569	Ǟ û
-2.6997843	± û
-2.3764377	x û
-2.62522	 û
-2.5851736	 û
-2.0388472	ń û
-2.8737233	´ û
-2.3484957	Ü û
-2.0245159	ϕ û
-1.6401294	ǥ û
-2.6546323	 û
-2.7390814	¯ û
-2.2825694	Ö û
-2.3468678	Ó û
-2.5051098	ȥ û
-1.7862186	Ɖ û
-2.6327019	â û
-2.4309843	¾ û
-2.1973486	ą û
-2.5261765	è û
-1.7220781	ǎ û
-2.7201843	Æ û
-2.2184577	¦ û
-1.9856416	ǽ û
-1.9341862	ɸ û
-1.9410042	˅ û
-1.3586632	ȭ û
-2.4703338	Û û
-2.0439477	Ǉ û
-1.9886243	ȉ û
-1.6164417	ʈ û
-2.4682996	Ƈ û
-1.7765758	ʃ û
-1.8535689	Ό û
-0.7661114	̰ û
-1.8805325	ƭ û
-1.521532	ʧ û
-1.8633103	ʎ û
-1.5584694	΍ û
-1.7628837	ɶ û
-1.3787837	û Ò
-1.7051533	Ȑ Ò
-2.8858404	g Ò
-2.5869555	м Ò
-2.5666013	Ė Ò
-2.3983822	h Ò
-0.57531464	̶ Ò
-2.4474697	 Ò
-2.6752129	Ç Ò
-1.4153324	 Ò
-2.4668057	и Ò
-1.8588084	¯ Ò
-1.0423082	m Ò
-1.4716358	к Ò
-1.5374067	¼ Ò
-1.6031893	ɷ Ò
-1.8669245	 Ò
-2.6690898	 Ò
-1.9176059	н Ò
-1.3910141	Ğ Ò
-2.0772135	̂ Ò
-1.611988	˗ Ò
-1.1625152	ʙ Ò
-0.54348373	̀ Ò
-0.91412485	o Ò
-1.4192637	ͣ Ò
-1.5091745	Ò Ȧ
-0.6230416	f Ȧ
-2.8475056	д Ȧ
-2.7263582	з Ȧ
-1.451112	Ħ Ȧ
-2.7644038	e Ȧ
-2.2375827	 Ȧ
-0.652607	Ƙ Ȧ
-1.9197943	<s> ï
-2.9698143	 ï
-1.794465	Ȧ ï
-2.3060613	б ï
-2.2075691	Ĩ ï
-2.0676978	 ï
-0.9534254	Ŵ ï
-2.6447787	й ï
-2.424586	n ï
-2.0037959	Ы ï
-1.8659384	ʫ ï
-2.0641088	Š ï
-2.1369765	ų ï
-1.3106785	 ï
-2.1049733	Ƀ ï
-2.290306	 ï
-2.3882074	± ï
-2.570192	x ï
-2.3924778	т ï
-2.1579387	­ ï
-2.2550309	Ď ï
-2.265363	Þ ï
-1.6341417	Ō ï
-2.328777	Ŷ ï
-2.4070444	Ь ï
-2.221756	¹ ï
-2.4003046	} ï
-1.7376423	ǰ ï
-2.1497667	Ž ï
-2.3298688	 ï
-2.4859712	Ç ï
-2.3734326	 ï
-1.9488367	ʩ ï
-2.5594428	¢ ï
-2.2295415	¯ ï
-1.3131559	Ǫ ï
-1.9957916	Ĕ ï
-1.7935358	Ñ ï
-2.282779	Ó ï
-2.1717603	Ʃ ï
-2.3444445	È ï
-2.3477585	 ï
-1.7447474	ż ï
-2.5359225	â ï
-2.0111978	ʞ ï
-2.356144	¾ ï
-2.5395548	к ï
-2.1480386	Ģ ï
-2.0740883	Ġ ï
-1.9143245	ǀ ï
-2.1621623	ą ï
-2.542217	Ƅ ï
-2.0372226	® ï
-2.406113	Î ï
-2.5291831	ǎ ï
-1.8743604	ŕ ï
-2.1517167	p ï
-2.060367	ň ï
-1.835551	Ȅ ï
-1.4465414	ě ï
-2.0972884	Ś ï
-2.0993674	ʓ ï
-2.016323	ǵ ï
-1.5477731	Ϧ ï
-2.0883248	ɔ ï
-1.6934264	˞ ï
-1.4955277	Ǆ ï
-2.1009789	ƚ ï
-1.6267409	ο ï
-1.7171984	Ƈ ï
-1.6360925	̢ ï
-2.3919673	ä ï
-1.4975588	͒ ï
-1.4393035	ȣ ï
-1.6899694	ķ ï
-1.7646506	Ϊ ï
-1.0587125	ϼ ï
-1.6119493	Ш ï
-1.6690358	ʁ ï
-1.7818393	ȴ ï
-1.4767799	ϯ ï
-1.9038429	Ȯ ï
-1.7349602	ʶ ï
-1.7796882	ĸ ï
-1.5459158	ǫ ï
-1.7678502	͹ ï
-1.7420772	ơ ï
-1.8373791	˰ ï
-1.513473	Ψ ï
-1.7541237	̵ ï
-1.6736783	ƅ ï
-1.6564186	ƣ ï
-1.8064069	ό ï
-1.4792885	ω ï
-2.3504288	<s> u
-2.4729223	w u
-2.277592	 u
-2.170585	{ u
-2.4964726	 u
-2.391234	à u
-2.745138	а u
-1.997335	ï u
-2.0002663	ǈ u
-1.6605536	j u
-1.8299382	ɂ u
-2.507919	б u
-1.941597	ş u
-1.5324337	g u
-2.2049544	é u
-1.9059336	 u
-2.3300946	Ŵ u
-2.003454	Ã u
-2.2080417	Ø u
-2.560017	й u
-2.3986292	ŉ u
-2.5412252	n u
-2.2536864	 u
-2.6410923	y u
-1.9663409	 u
-2.5112371	Ы u
-1.9757042	Ǌ u
-2.6173856	 u
-2.1084576	Ǟ u
-2.080693	Ƀ u
-1.9318367	Ȕ u
-1.9652568	 u
-2.0283961	 u
-2.1812267	± u
-1.5875267	Ė u
-2.497142	x u
-1.9850022	Ÿ u
-2.4023724	 u
-2.2984335	 u
-2.212876	 u
-2.20518	ȁ u
-1.9699268	ŵ u
-1.497928	ʑ u
-1.5447519	Ǳ u
-2.6763308	´ u
-2.1900456	ł u
-2.3476825	Ą u
-2.2693956	Ŷ u
-1.8447047	ή u
-2.1701841	ė u
-2.0525694	ú u
-1.6443349	̊ u
-2.5379508	Ь u
-2.1025147	ø u
-2.548662	} u
-2.0706916	ǰ u
-2.3237236	¸ u
-2.4868386	 u
-2.3326464	Â u
-1.9349256	Ð u
-2.3642883	© u
-2.2946732	 u
-2.3195581	 u
-1.9223523	ʩ u
-2.4993901	¢ u
-1.7597386	ǩ u
-2.5730152	¯ u
-1.3790213	ŝ u
-1.8941271	ā u
-2.226943	Ó u
-2.010697	È u
-2.1182892	ȥ u
-2.0730639	Ɖ u
-1.622589	ŗ u
-2.2923245	¾ u
-2.473535	к u
-1.8281447	ʠ u
-2.0484984	Ġ u
-1.8648053	ƨ u
-1.8287311	Ƅ u
-2.5404408	Э u
-2.3648715	 u
-2.3989913	è u
-1.6831627	ͺ u
-2.3661046	p u
-2.1369987	ŭ u
-1.7795323	ɾ u
-1.5318832	˸ u
-2.3245173	č u
-1.9096878	Ʒ u
-1.8681643	˒ u
-1.8121629	͖ u
-2.1691496	ǜ u
-2.0593715	Ś u
-2.1306198	ç u
-2.026973	ƶ u
-1.5851483	Û u
-1.987833	ǵ u
-1.7447774	ȕ u
-1.948396	š u
-2.0694134	ƚ u
-1.8939054	̬ u
-1.9197632	̅ u
-1.7512649	Ɵ u
-1.8571084	ǋ u
-2.0109801	Ů u
-1.9861863	ȶ u
-1.7739234	͝ u
-1.870842	͘ u
-2.0301645	˘ u
-1.4302919	ʁ u
-1.8009686	Ŏ u
-1.9707721	ͧ u
-1.9374143	͢ u
-1.6752355	Α u
-1.7487333	ʇ u
-1.222394	͗ u
-1.4573989	ʎ u
-1.6408285	ȼ u
-1.8173797	ʋ u
-1.1130013	Ȥ u
-1.2056988	˯ u
-1.386484	Σ u
-1.7369591	˦ u
-1.2853035	Ћ u
-1.5626578	Β u
-2.2666454	u å
-2.3795033	k å
-1.9624081	Ô å
-2.405544	° å
-2.485496	½ å
-1.1588745	z å
-2.7136757	г å
-2.4881527	и å
-2.7419715	µ å
-1.9780252	͛ å
-2.5003903	È å
-2.5205276	 å
-1.6042846	ɫ å
-2.8797646	 å
-1.4525087	ǯ å
-2.835881	<s> ǈ
-2.6013622	w ǈ
-3.029065	 ǈ
-2.9692688	{ ǈ
-2.019424	 ǈ
-2.4927473	à ǈ
-2.3393202	ñ ǈ
-2.0723846	å ǈ
-1.834199	ǈ ǈ
-1.7473997	τ ǈ
-3.0067067	j ǈ
-2.5904384	б ǈ
-1.6634943	ş ǈ
-2.3134658	 ǈ
-2.3297172	Ã ǈ
-2.2797246	Ø ǈ
-2.2979033	й ǈ
-2.1529498	ŉ ǈ
-2.6790237	n ǈ
-2.764606	 ǈ
-2.881101	 ǈ
-2.7806408	y ǈ
-2.4867253	 ǈ
-2.6353197	Ы ǈ
-2.1937435	¶ ǈ
-2.3958666	Š ǈ
-2.9728403	у ǈ
-2.5554984	е ǈ
-1.8960676	 ǈ
-2.3868635	 ǈ
-2.6488333	± ǈ
-2.614655	x ǈ
-1.9278227	 ǈ
-2.503522	 ǈ
-2.3485992	½ ǈ
-1.5539774	ς ǈ
-2.5615566	Ď ǈ
-2.8187807	´ ǈ
-2.36397	Ŷ ǈ
-2.6703544	Ь ǈ
-2.3311923	Ü ǈ
-2.5261214	Ç ǈ
-1.6431389	Ð ǈ
-2.624948	 ǈ
-2.3023307	ë ǈ
-2.6041243	i ǈ
-2.6940851	¯ ǈ
-2.1883738	ŏ ǈ
-2.5209012	 ǈ
-2.006235	Ó ǈ
-1.902544	Ǚ ǈ
-2.1069133	Ȩ ǈ
-1.4338725	˃ ǈ
-2.2977624	ż ǈ
-2.3942933	¾ ǈ
-2.2290263	ƨ ǈ
-2.5906682	Ƅ ǈ
-2.0569417	® ǈ
-2.6877956	 ǈ
-2.563276	ǎ ǈ
-2.4047453	Æ ǈ
-2.5381348	 ǈ
-2.158841	ɾ ǈ
-1.8429053	΁ ǈ
-2.4363592	Û ǈ
-1.8852885	ʊ ǈ
-2.2525063	Ǧ ǈ
-2.4204795	ä ǈ
-2.0656018	Ů ǈ
-1.7793517	Ē ǈ
-1.5519115	̌ ǈ
-1.7933247	ȴ ǈ
-2.1708672	ʣ ǈ
-1.5816602	Ͱ ǈ
-1.7885361	ĸ ǈ
-2.0174682	ͧ ǈ
-1.7639922	̵ ǈ
-2.0934377	Ʋ Ȑ
-2.5562654	 Ȑ
-2.5212011	{ Ȑ
-2.3971486	ñ Ȑ
-2.4270914	Ò Ȑ
-2.6067939	ï Ȑ
-2.4204137	ǈ Ȑ
-2.3911908	j Ȑ
-2.8281598	б Ȑ
-2.7027874	ş Ȑ
-2.55676	 Ȑ
-2.8100672	й Ȑ
-2.988593	 Ȑ
-2.7022269	д Ȑ
-3.1353776	 Ȑ
-1.7151864	Ë Ȑ
-2.6806345	h Ȑ
-2.3901086	 Ȑ
-2.2108262	Ų Ȑ
-2.639623	Ď Ȑ
-2.3007817	ł Ȑ
-2.7741826	} Ȑ
-2.7055032	 Ȑ
-2.5457745	Ð Ȑ
-2.6661277	¢ Ȑ
-2.7757573	Ñ Ȑ
-2.5382895	ȥ Ȑ
-2.184466	Ŝ Ȑ
-1.9521487	œ Ȑ
-2.3541794	ż Ȑ
-1.5466443	ŗ Ȑ
-2.4710636	¾ Ȑ
-2.5415792	¼ Ȑ
-2.0514977	Ȼ Ȑ
-2.2843995	ƨ Ȑ
-2.6920953	Ƅ Ȑ
-2.6103172	 Ȑ
-1.7609801	ȭ Ȑ
-2.3884656	ě Ȑ
-2.2025473	Ŧ Ȑ
-2.1715877	Û Ȑ
-1.9191059	ǋ Ȑ
-1.6770664	̣ Ȑ
-1.9438118	Ȯ Ȑ
-2.166967	ʇ Ȑ
-1.9686826	o Ȑ
-1.876821	ʋ Ȑ
-2.395214	û τ
-0.9748468	Ȑ τ
-3.0138128	й τ
-2.341564	v τ
-2.7913852	 τ
-2.318812	ė τ
-2.563007	¯ τ
-1.6699146	ε τ
-1.9409012	ÿ τ
-2.3970964	<s> Ć
-2.5318222	 Ć
-2.3769796	{ Ć
-2.4015982	 Ć
-2.7143404	а Ć
-2.5558066	ï Ć
-1.7528836	τ Ć
-2.3281584	j Ć
-1.8746482	ɂ Ć
-2.6391494	ş Ć
-2.5238104	 Ć
-2.3979383	Ŵ Ć
-2.7610912	Ã Ć
-2.7319424	й Ć
-2.4952276	ŉ Ć
-2.713448	n Ć
-2.6682117	 Ć
-2.8370852	 Ć
-2.570813	Ë Ć
-2.2130406	 Ć
-2.4151974	Š Ć
-2.7716947	 Ć
-2.6110609	 Ć
-2.6423528	ж Ć
-2.362082	Ÿ Ć
-2.0620666	Ɲ Ć
-2.4240267	 Ć
-2.2757177	´ Ć
-2.1059027	Ā Ć
-2.3860877	Ŷ Ć
-2.4562495	Ь Ć
-2.342651	Ü Ć
-2.6532288	 Ć
-2.723559	¯ Ć
-2.4111784	ð Ć
-1.8813403	˽ Ć
-2.3917034	È Ć
-2.1672342	â Ć
-2.3903441	Ũ Ć
-2.246711	ƨ Ć
-2.7182963	 Ć
-2.0822546	ͺ Ć
-2.4184508	Æ Ć
-2.2391663	ŕ Ć
-2.257032	ă Ć
-1.9644083	ʜ Ć
-2.4878945	p Ć
-2.5755816	ƶ Ć
-2.116045	ɔ Ć
-2.0421538	Ʈ Ć
-2.1295218	ƚ Ć
-1.0623058	ɞ Ć
-2.143433	Ɵ Ć
-2.077646	Ů Ć
-1.7858402	ə Ć
-2.0587506	ȏ Ć
-2.1191406	ɢ Ć
-2.1871626	ő Ć
-1.9440459	Ƌ Ć
-1.4477094	ͽ Ć
-2.034207	Ư Ć
-1.9713387	͢ Ć
-1.876656	ƭ Ć
-1.9013017	ʧ Ć
-1.782061	Б Ć
-1.7616583	˦ Ć
-1.5605103	Х Ć
-0.98406065	Ć Ͽ
-2.5538282	ó Ͽ
-1.722019	˾ Ͽ
-2.1965675	¡ Ͽ
-1.6143903	ǣ Ͽ
-0.5947026	ǧ Ͽ
-1.1533618	<s> j
-2.6138966	| j
-1.8542391	w j
-1.0756085	 j
-0.9142172	{ j
-1.7057825	 j
-1.7105304	à j
-1.328502	³ j
-1.8593504	ñ j
-1.8917689	Ò j
-1.3269751	Ȧ j
-1.6184317	å j
-2.0396287	ǈ j
-1.640679	τ j
-0.82830226	Ͽ j
-1.4756215	б j
-1.6675901	ş j
-2.4251714	g j
-1.7647461	Ĩ j
-0.59534705	é j
-1.2095716	 j
-0.7923944	Ŵ j
-1.4548607	Ã j
-1.4638573	Ø j
-1.8019812	й j
-0.55565107	ŉ j
-1.9453504	n j
-2.136392	 j
-1.3523965	Ǽ j
-0.87188727	ʴ j
-1.4968333	Ј j
-0.56871617	 j
-2.2493494	д j
-1.1661518	y j
-0.6038672	 j
-2.0594265	Ë j
-2.1203089	Ы j
-1.5707581	Ǌ j
-1.5356804	л j
-1.7295362	ʫ j
-1.9481629	¶ j
-1.8156768	¤ j
-1.7126116	 j
-1.3844819	Š j
-2.8034549	у j
-1.9215823	е j
-0.95068735	í j
-1.2061741	ų j
-1.0459052	 j
-2.1961799	Ю j
-1.9687732	Ƀ j
-1.2149613	ʼ j
-2.0216928	 j
-1.8340491	þ j
-1.1804804	 j
-1.5308526	± j
-2.2206619	Я j
-1.0776095	x j
-1.3167968	 j
-1.7177453	ź j
-2.2308183	h j
-1.8670372	 j
-1.5776341	 j
-1.1840723	ğ j
-1.4238923	т j
-1.9497241	­ j
-1.9109752	 j
-0.7730454	Ų j
-1.231743	ǟ j
-2.0644557	ŵ j
-1.123265	ς j
-1.7338028	ʑ j
-1.017846	Ď j
-1.4328825	ł j
-2.0481691	Þ j
-1.9741358	ǔ j
-1.1316068	Ā j
-1.2882495	Ō j
-1.7987012	Ą j
-1.7252271	Ŷ j
-2.2035916	г j
-1.1691822	Ŕ j
-1.9911618	õ j
-0.6950768	ĭ j
-1.6128004	ú j
-1.7614391	Ь j
-1.4494069	} j
-0.53419614	ƫ j
-1.4597063	ǰ j
-1.3560598	̀ j
-1.3553303	ϕ j
-1.1871336	¸ j
-1.8414564	ǥ j
-1.9529258	Ž j
-2.0955667	 j
-2.1710837	Ç j
-1.9792336	Ð j
-1.9660958	© j
-2.115749	 j
-1.9210917	 j
-2.0280554	ë j
-0.59488034	¢ j
-1.7546201	Ľ j
-0.28040737	ȱ j
-1.6784306	ǩ j
-1.5911554	ϭ j
-0.83192015	¯ j
-1.5798864	ƃ j
-2.1750724	m j
-2.0149567	 j
-0.9021625	Ǫ j
-1.5215123	İ j
-2.0259254	ƕ j
-1.1496735	Ñ j
-1.518373	Ó j
-1.953135	Ʃ j
-1.7686193	Ǚ j
-1.8440399	r j
-0.845009	ȥ j
-1.7567308	œ j
-1.9151269	Ɖ j
-1.895194	 j
-1.7649181	ͨ j
-1.3762391	˃ j
-1.3705802	ż j
-1.8366495	â j
-1.5731835	ʞ j
-2.052067	¾ j
-2.2274253	к j
-1.9032779	ƽ j
-2.0997314	Ũ j
-1.3401527	˴ j
-1.3522767	Μ j
-2.1605153	¼ j
-1.5592016	Ȼ j
-1.2089602	ʠ j
-1.6164798	ɇ j
-2.1288552	Ġ j
-1.4559482	ō j
-1.1434722	Ǡ j
-1.9535222	ƨ j
-0.524966	ģ j
-1.7701399	ǀ j
-0.8351236	ą j
-1.8546267	Ȃ j
-1.6688166	Ƅ j
-2.2983224	Э j
-2.2029383	Î j
-2.172357	 j
-2.0022101	è j
-1.7695594	ǎ j
-0.88405144	Æ j
-1.9528877	¦ j
-0.97487223	΂ j
-1.3459812	Ƿ j
-1.405241	ŕ j
-2.2091134	 j
-1.4207199	ă j
-0.6770448	ǽ j
-1.0444086	Į j
-1.7773333	ɸ j
-1.4067504	ĺ j
-1.8540248	ʨ j
-1.796891	ʘ j
-2.131322	p j
-1.5945383	Ɩ j
-1.7337923	ŭ j
-2.0089629	ć j
-1.4811271	Ä j
-2.1546123	č j
-1.5028037	Ʒ j
-0.92652774	ċ j
-1.606423	ɿ j
-1.4061841	Υ j
-1.3681431	Ȅ j
-1.5770322	ǜ j
-1.4772232	͍ j
-1.8071401	Ϳ j
-0.86851287	Ķ j
-1.6892433	ě j
-1.1851057	΁ j
-1.4565334	Ǻ j
-1.9785414	ç j
-1.3802918	ʉ j
-1.2756633	ʓ j
-1.6468972	Û j
-1.5807457	ǵ j
-1.820674	Ĵ j
-1.3163999	ɗ j
-1.5828912	˜ j
-1.7494073	ɼ j
-1.5760269	Ǉ j
-1.8884486	ш j
-1.1466599	ġ j
-1.3193154	ȉ j
-0.8448786	ˡ j
-1.8397762	š j
-1.7959422	ȧ j
-1.6829014	Ǆ j
-1.6633883	ƚ j
-1.2247727	͞ j
-1.3798614	ʻ j
-1.4566534	ϓ j
-1.5395731	ο j
-1.1697749	Ζ j
-1.995587	q j
-1.8530356	̡ j
-1.3241537	ț j
-1.1523502	Ƈ j
-1.2814841	̬ j
-1.3003256	˖ j
-1.5643487	̢ j
-1.4814429	Ɯ j
-1.5129844	̅ j
-1.8157562	̂ j
-2.0362208	Ī j
-1.6306988	ǌ j
-2.018942	Ň j
-1.4422543	ˊ j
-1.5081482	ư j
-1.9428267	ä j
-1.8770977	ã j
-1.8291503	Ŭ j
-1.9801091	Ŀ j
-1.6481967	ʐ j
-1.6877925	͝ j
-1.8427391	ƒ j
-0.6060993	ƺ j
-1.5821458	̮ j
-1.5782789	μ j
-1.5866095	ȏ j
-1.8778273	ķ j
-1.1104655	˘ j
-1.6762077	Г j
-1.4362985	ǆ j
-2.0905623	· j
-1.1221368	ϻ j
-1.6097739	ȸ j
-1.2019025	ʁ j
-1.1901937	Є j
-1.2580177	Đ j
-1.593813	Ǜ j
-1.6942303	̒ j
-1.6739497	˼ j
-0.87304854	ͩ j
-1.5900493	Ǵ j
-1.5421864	ĉ j
-1.8584617	ȟ j
-1.9092716	̀ j
-1.2906985	ʍ j
-1.3401527	Ǒ j
-0.85510635	ʣ j
-1.7647717	Ƌ j
-1.0498904	δ j
-1.8272108	ș j
-1.4992852	Á j
-1.6324085	ʶ j
-1.621032	ˠ j
-1.5860673	Ư j
-1.7076586	Ŏ j
-1.614173	Ͷ j
-1.7096314	Ό j
-1.8674138	ʏ j
-1.715583	ɺ j
-1.424338	ƭ j
-1.7421845	ʧ j
-1.7427558	Ͳ j
-1.9902226	ʇ j
-1.6659657	ħ j
-0.78447366	Ȱ j
-1.1901937	͗ j
-1.2075232	̸ j
-0.9237169	͉ j
-1.120034	͹ j
-1.2472624	ϩ j
-1.903592	ơ j
-1.200057	Ɉ j
-1.8229274	ј j
-1.5538555	̓ j
-0.5514766	Π j
-1.6741432	˹ j
-1.2557453	ȩ j
-1.3941216	× j
-1.3402632	̉ j
-1.4986501	Ξ j
-1.4045863	Ќ j
-1.7028426	˰ j
-1.7393482	ɖ j
-1.4004645	Ț j
-1.1200446	Й j
-1.4992852	ɠ j
-1.3137373	Ɛ j
-1.5798374	ƅ j
-1.2303776	ƣ j
-0.9168441	Ϯ j
-1.6974698	ό j
-0.8222056	ω j
-0.9168441	ϛ j
-0.7829075	υ j
-2.2054694	<s> t
-2.0270338	Ʋ t
-2.3187954	w t
-2.4921014	 t
-2.257485	{ t
-2.6382644	а t
-2.304388	ǈ t
-1.6353518	j t
-2.5463831	б t
-1.5428822	΄ t
-2.5462437	ş t
-1.780506	g t
-2.1973457	Ĩ t
-2.1618955	 t
-2.2661908	й t
-2.4376688	 t
-2.1940386	y t
-2.1852834	 t
-2.158067	¶ t
-2.2799087	¤ t
-2.4543822	 t
-2.4525692	 t
-1.6039968	Ǟ t
-2.6390893	Ю t
-2.276033	 t
-2.5301564	Я t
-2.112444	Ė t
-2.5507457	x t
-2.5230885	 t
-1.7985455	Ÿ t
-2.4489827	 t
-2.0414655	 t
-2.2456245	 t
-1.9970616	ń t
-2.0456407	ǟ t
-2.3553903	 t
-2.5057564	Ď t
-2.5569046	´ t
-2.2545023	Þ t
-2.3131533	Ŷ t
-2.4870386	г t
-2.175506	õ t
-2.0768147	ú t
-2.393475	Ь t
-2.2128499	} t
-2.5424435	 t
-2.4682891	Ç t
-2.1501417	Ð t
-2.5613856	 t
-2.2612712	ë t
-2.5436335	¢ t
-2.5725052	и t
-2.6281192	¯ t
-1.9094815	ā t
-2.6308692	Ñ t
-2.0838883	ƴ t
-2.2681327	Ó t
-1.8852283	Ǚ t
-2.591707	ŗ t
-2.3392885	¾ t
-2.0832791	ƽ t
-2.0261135	Ũ t
-2.3683307	Ġ t
-2.3994153	ģ t
-1.907702	ǀ t
-2.1537938	ą t
-1.8678627	ˀ t
-2.306299	Ƅ t
-2.3722625	Æ t
-1.83828	¦ t
-1.9306034	ʜ t
-1.6893868	Ɩ t
-1.79235	ɾ t
-1.9712176	ć t
-1.9313112	Ʒ t
-2.2571285	н t
-1.8885598	˒ t
-1.9381838	Ϳ t
-1.7988296	Ŧ t
-1.9098524	Û t
-1.9796788	Ĵ t
-2.158558	ˡ t
-2.2035313	Ƥ t
-2.0020192	ƍ t
-1.8355002	Ɨ t
-1.6432309	̂ t
-1.9586936	˗ t
-1.9268929	Ň t
-2.0173204	ã t
-1.7638113	Ē t
-1.7922568	Г t
-2.0128827	ʁ t
-1.7374852	ɢ t
-1.8048389	ɦ t
-1.5702484	ʹ t
-1.9538325	ș t
-1.5722278	Á t
-1.182771	ː t
-1.3454071	Ϡ t
-1.7913358	˹ t
-1.152685	Х t
-1.0398289	ʭ t
-2.512339	u ɂ
-1.9513079	t ɂ
-2.7020364	л ɂ
-1.8475152	ð ɂ
-1.3195273	͛ ɂ
-1.7292948	ȅ ɂ
-1.5768272	 ɂ
-1.6505022	Ơ ɂ
-1.7862823	̹ ɂ
-1.69354	ś ɂ
-2.0624635	ъ ɂ
-0.7679613	А б
-2.4093995	 б
-2.575139	{ б
-1.6644672	³ б
-1.3698858	Ò б
-1.9729264	å б
-1.7701213	Ͽ б
-1.7887489	ɂ б
-2.5214815	б б
-1.2968825	Ĩ б
-1.6967982	ʥ б
-1.8718874	Ø б
-2.063391	м б
-1.7600578	в б
-1.7718127	ƥ б
-0.7848705	Ǽ б
-1.4031811	д б
-0.8842262	Ë б
-1.6571927	л б
-0.9614096	¶ б
-1.8595281	Ɗ б
-1.2593173	Ч б
-0.3085111	у б
-1.1319762	е б
-1.7921358	 б
-1.889317	Ȕ б
-0.5254758	ʼ б
-1.4343472	 б
-1.5971154	Я б
-1.2682681	h б
-2.362828	з б
-1.696254	° б
-2.16918	Ÿ б
-2.2146168	 б
-1.9390385	Ɲ б
-1.8119771	ğ б
-1.4627718	į б
-1.758089	½ б
-1.3314854	 б
-1.9205539	ń б
-1.7610093	Ų б
-1.9701077	ǟ б
-1.273219	ĩ б
-0.9201127	ł б
-1.2906138	ǔ б
-1.6837902	Ā б
-2.343225	г б
-1.3170153	Ŕ б
-1.0306358	ė б
-1.5712845	Ĭ б
-2.0357556	ø б
-0.56496096	ò б
-1.3770101	̀ б
-1.3744941	Ű б
-2.3930068	e б
-0.81115	ĵ б
-1.8087348	¸ б
-0.987972	Ǎ б
-1.3928357	Ç б
-2.0454783	© б
-0.9411488	 б
-1.0916312	ë б
-1.5027568	Ľ б
-1.6135579	ƃ б
-1.4719175	ā б
-1.1920675	Ĕ б
-1.4891047	ƴ б
-1.5119104	œ б
-1.3148584	 б
-0.18650435	ͨ б
-1.6041231	ʀ б
-1.2696369	к б
-0.910928	ĳ б
-0.8320447	ʝ б
-1.5964346	¼ б
-1.669007	ȅ б
-0.4003393	Ο б
-1.5881939	̏ б
-2.1392496	ō б
-2.5197356	~ б
-1.9543252	ů б
-1.2197456	ϡ б
-0.9865097	΂ б
-1.8153741	ŕ б
-1.439451	ĺ б
-1.6186309	ʨ б
-1.6061416	Ǯ б
-1.6032785	Ɏ б
-1.30777	p б
-1.9020737	ć б
-0.9327024	č б
-1.3228106	ċ б
-1.136317	˩ б
-1.7756127	͖ б
-1.040022	ɿ б
-1.0189444	Ϣ б
-1.2779828	͍ б
-1.9010077	ʗ б
-1.3224082	Ϳ б
-1.2399522	Ķ б
-2.1581812	ǘ б
-1.4800305	Ɇ б
-1.4710927	̿ б
-0.89814126	Û б
-1.3751994	Ğ б
-1.9046712	Ĵ б
-0.5896808	ȕ б
-1.2692499	˜ б
-1.0837822	́ б
-1.8096657	ɼ б
-1.6174408	Ǉ б
-2.342908	ġ б
-0.55014586	š б
-1.5698853	Ƨ б
-1.5637512	ʈ б
-1.7582626	ʻ б
-0.5502683	ſ б
-0.6357892	͕ б
-1.6211576	ď б
-1.8437879	q б
-1.6700451	ǿ б
-1.3261743	˖ б
-2.0414753	Ɯ б
-1.428895	Ī б
-1.9798008	ǌ б
-1.8276776	Õ б
-0.3800637	ˏ б
-1.4169346	ä б
-1.9519289	ã б
-1.6214302	Ŭ б
-1.838327	ƌ б
-2.029846	ƺ б
-1.0358273	̮ б
-1.4118246	ȣ б
-1.4849522	͘ б
-1.1060542	ķ б
-1.7176961	˷ б
-1.7213622	Ĳ б
-1.7389429	Г б
-1.3866632	ƙ б
-0.12297681	ˁ б
-1.6283982	ʁ б
-1.2049596	Ƕ б
-0.5388521	ˬ б
-1.7429445	ŀ б
-1.3056904	ʕ б
-0.81743217	Ȇ б
-1.5121654	ˇ б
-1.3744504	ǲ б
-1.1728594	² б
-1.9514595	ȟ б
-1.3665606	Ǒ б
-1.2493764	Ș б
-1.4035842	î б
-1.0615058	δ б
-1.1676638	Á б
-1.0292282	ͽ б
-1.080362	ˠ б
-1.6474621	Ɔ б
-1.4298316	Ό б
-1.2330427	ę б
-1.7143534	ħ б
-0.56454396	ǅ б
-1.2483177	ȼ б
-1.5854465	Ɉ б
-1.5469403	Ύ б
-1.4919202	ˮ б
-1.6470985	έ б
-1.481741	Ȥ б
-1.7107142	ɶ б
-1.2955979	Ź б
-1.5452867	ʿ б
-1.0596205	ȗ б
-1.4783269	ͯ б
-0.9352475	ϟ б
-1.4279231	Ќ б
-1.481741	Ψ б
-1.4252132	Ț б
-1.1676638	ɠ б
-1.1412383	ʖ б
-1.0466872	ȃ б
-1.3243814	ʌ б
-1.0299542	˥ б
-1.0709865	͸ б
-0.9277838	Ȟ б
-1.5077246	͋ б
-3.3809543	<s> ΄
-3.3930788	 ΄
-3.3540606	{ ΄
-2.9623296	б ΄
-3.0021338	 ΄
-2.9971266	 ΄
-2.9354882	} ΄
-2.7703094	¢ ΄
-2.562101	ģ ΄
-2.1082826	Ʈ ΄
-1.8039051	ȝ ΄
-2.3124766	w ş
-2.5443692	 ş
-1.7673793	а ş
-2.3220782	Ò ş
-1.0115197	ï ş
-1.8445842	ɂ ş
-2.5397313	б ş
-1.5413734	΄ ş
-2.3081844	ş ş
-2.1205657	£ ş
-2.107355	 ş
-2.4030244	n ş
-1.9078727	 ş
-1.9828472	Ǽ ş
-2.1195726	д ş
-2.3406534	Ы ş
-2.5187182	¤ ş
-2.4468718	 ş
-2.3442316	Š ş
-2.2719378	 ş
-2.6306446	Ю ş
-2.2690687	 ş
-2.2646332	þ ş
-2.3347607	 ş
-2.5210865	Я ş
-1.9560043	x ş
-2.1458943	ź ş
-2.2840421	h ş
-2.5708795	ж ş
-2.250961	v ş
-2.0508978	į ş
-2.2968822	½ ş
-2.370538	т ş
-2.4666398	 ş
-2.3481944	 ş
-0.98872876	ŵ ş
-1.5434464	ς ş
-1.8661321	ʑ ş
-2.497458	Ď ş
-1.0741566	´ ş
-2.2491722	Þ ş
-2.3825474	Ą ş
-2.3055472	Ŷ ş
-2.386846	Ь ş
-2.3817194	} ş
-1.7329327	ǰ ş
-2.35461	¸ ş
-2.135429	Ž ş
-2.3120584	 ş
-2.4597108	Ç ş
-1.7630086	Ð ş
-1.8102521	ŏ ş
-2.421663	r ş
-2.3266292	 ş
-2.2494137	ż ş
-1.6942601	ȹ ş
-2.0787737	ƽ ş
-2.273164	ĳ ş
-2.4180927	¼ ş
-2.361891	Ġ ş
-2.2355773	ō ş
-2.5796263	Э ş
-1.9277964	 ş
-2.1811776	ŕ ş
-2.4781837	 ş
-1.587848	ʘ ş
-1.5071247	ϧ ş
-1.9030656	˅ ş
-2.1614408	ŭ ş
-1.7254424	ȭ ş
-1.4373912	Ή ş
-1.8250633	͖ ş
-2.0483353	ň ş
-1.4438943	ě ş
-0.98726046	ƶ ş
-2.377372	Û ş
-2.0014074	Ʈ ş
-2.1534514	ˡ ş
-2.0009444	͕ ş
-1.9862615	Ζ ş
-1.3682724	ț ş
-1.7123494	Ʉ ş
-1.5818266	Ƈ ş
-1.6413007	̂ ş
-1.5952989	͵ ş
-2.0324519	Ů ş
-1.9009281	ƌ ş
-1.9251858	Ĥ ş
-2.0130603	ȏ ş
-1.747925	˷ ş
-1.9031833	» ş
-1.5706182	Á ş
-1.7735496	ĸ ş
-1.9892296	ͧ ş
-1.486542	̯ ş
-1.8475523	ƭ ş
-1.8549826	Ͳ ş
-1.8163474	ϲ ş
-1.5413734	ǫ ş
-2.075251	ơ ş
-1.440763	͌ ş
-1.653405	Ƞ ş
-1.8803822	ˮ ş
-1.472635	ɝ ş
-1.057125	ǝ ş
-1.0393535	И ş
-1.7477688	<s> g
-1.7130728	w g
-1.6601794	 g
-1.9347683	{ g
-1.4630091	 g
-1.6527622	³ g
-2.4515471	а g
-2.137894	ñ g
-2.1724365	Ò g
-1.9468151	å g
-2.1286628	ǈ g
-2.012473	j g
-1.7112532	б g
-1.2168949	ş g
-2.5444252	g g
-1.3128293	é g
-1.6819547	ʥ g
-1.6203134	 g
-1.9603211	Ŵ g
-1.042755	Ã g
-2.2474184	м g
-0.99379426	ŉ g
-1.9972135	n g
-1.7929516	 g
-1.2671213	ʴ g
-1.0240849	 g
-1.4374133	Ŋ g
-1.5281899	y g
-1.2893257	 g
-1.4942598	Ë g
-2.1985912	Ы g
-1.5546837	л g
-2.0216365	¶ g
-1.8517677	¤ g
-2.2753367	 g
-1.7894912	Š g
-0.67932725	í g
-1.5337362	ų g
-2.031549	 g
-1.6397868	ʼ g
-2.1078792	 g
-1.8848307	þ g
-2.176241	 g
-1.6494681	± g
-2.3213694	Я g
-1.892574	x g
-0.98057735	 g
-1.7589817	ź g
-2.1280022	Ÿ g
-2.0707712	 g
-2.2269316	ğ g
-2.2050276	т g
-2.1131916	ȁ g
-2.0190916	Ų g
-1.6467024	ǟ g
-2.1439435	ŵ g
-2.128429	Ď g
-2.3787396	´ g
-2.087971	ł g
-1.4633105	Ā g
-2.2431617	Ō g
-1.8383114	Ą g
-1.6023638	Ŷ g
-2.2976105	г g
-2.0801504	ė g
-1.2893988	ú g
-1.4057751	ώ g
-1.9772762	Ь g
-1.8626063	} g
-0.895391	ƫ g
-1.8939371	ǥ g
-2.0195494	Ž g
-1.5797259	Ǎ g
-2.2686727	Ç g
-1.1731497	Ð g
-1.3304706	¢ g
-1.8058019	Ľ g
-1.4630725	ȱ g
-2.2016184	и g
-1.9919091	ǩ g
-2.1738992	i g
-1.0310537	¯ g
-2.0928607	Ö g
-1.790379	 g
-1.9848728	Ǫ g
-1.7849696	˽ g
-2.1053667	ƕ g
-1.1556315	Ñ g
-1.9738072	ƴ g
-1.5447853	Ó g
-1.0577891	Ǚ g
-2.25717	ȥ g
-2.1661077	 g
-1.7859864	ͨ g
-1.3961377	˃ g
-1.6870553	ż g
-1.5638871	â g
-1.6434137	ȹ g
-1.9651558	ŗ g
-1.6047958	ʞ g
-2.3243601	к g
-2.2311645	 g
-2.210892	Ġ g
-1.6563778	ō g
-1.6747396	Ǡ g
-1.6172835	ƨ g
-1.2159145	ģ g
-2.2927225	Ƅ g
-2.393944	Э g
-2.1191237	 g
-1.8950429	è g
-1.5833355	ǎ g
-1.9583387	ͺ g
-0.97479934	Æ g
-2.0257318	¦ g
-1.5741134	Ƿ g
-2.0469494	ŕ g
-1.9430697	 g
-1.7899392	Į g
-1.8242141	ɸ g
-1.7537379	ĺ g
-1.9095926	ʨ g
-1.8185506	˅ g
-1.2821137	Ɩ g
-1.7730865	ŭ g
-2.008971	ɾ g
-2.004393	Ä g
-1.7567484	͖ g
-1.9581944	Ǔ g
-1.6350217	ɿ g
-1.7630202	Υ g
-1.3226976	ě g
-1.4209718	΁ g
-1.6929066	Ś g
-1.2874688	ʓ g
-2.2948532	ƶ g
-1.4689375	Η g
-1.9824721	Ŧ g
-1.9142855	ǵ g
-1.8954772	ɗ g
-0.8030453	ʊ g
-1.9012159	Ʈ g
-1.5548589	ġ g
-1.846947	ȉ g
-2.0295315	ˡ g
-1.886658	š g
-1.3975633	ʻ g
-1.9904158	ϓ g
-2.1153674	Ǧ g
-1.8610839	Ő g
-1.8958355	Ζ g
-1.9148664	̡ g
-2.0165277	Ɯ g
-1.8441738	̅ g
-1.6549997	ǖ g
-2.0996888	Ī g
-1.6634257	ǌ g
-2.0957909	Ň g
-1.5358354	ư g
-1.6067603	Ŭ g
-2.0446548	Ŀ g
-1.6404032	Ů g
-0.82114625	ȶ g
-1.7255125	͝ g
-1.2625557	̮ g
-1.48806	Ǹ g
-1.6128521	μ g
-1.9026933	ȏ g
-2.0277982	ƻ g
-1.5282885	ɜ g
-1.2523725	˘ g
-1.3205485	˔ g
-1.3738668	ǡ g
-1.6147012	ʁ g
-1.8027178	Đ g
-1.964716	ɢ g
-1.6300186	Ǜ g
-1.8773745	ĉ g
-1.9221833	ȟ g
-1.9400454	̀ g
-1.7455351	ʣ g
-1.6047704	Ș g
-1.4414071	Ū g
-1.8293552	Ϻ g
-1.0343584	ɛ g
-1.7530905	Ό g
-1.4128591	ɺ g
-1.8939557	ͧ g
-0.44066554	͢ g
-1.52362	ɽ g
-1.7728069	ƭ g
-1.2513013	ʧ g
-1.785816	Ͳ g
-1.6774943	ȝ g
-1.7414757	ϲ g
-1.4518641	Ȱ g
-1.4288777	ʎ g
-1.3381852	Ɂ g
-1.6829739	ơ g
-1.5715417	Ɉ g
-1.4309334	ʋ g
-1.637569	ɪ g
-1.5255289	Ρ g
-1.5507427	ϋ g
-1.3010434	ʲ g
-1.8638287	Ź g
-1.588346	̓ g
-1.4394057	ɐ g
-1.8023084	ȗ g
-1.1324307	Ω g
-1.1324307	Щ g
-1.3610275	̉ g
-1.5678355	á g
-1.687724	̵ g
-1.5109665	ʖ g
-1.6299239	ɋ g
-1.4043986	ʭ g
-1.4955969	͋ g
-1.4057751	υ g
-1.9200727	<s> £
-2.0372286	Ʋ £
-2.5019734	 £
-2.751776	{ £
-1.9846637	à £
-2.4677503	j £
-2.856732	б £
-2.6869445	g £
-2.1153338	 £
-1.5918516	Ŵ £
-2.676202	Ã £
-2.6477134	й £
-2.5804553	в £
-2.4898083	 £
-2.8330722	 £
-2.5766327	д £
-2.5907853	Ы £
-1.4970014	ʫ £
-2.1705756	¶ £
-2.548093	¤ £
-1.4024098	ŧ £
-2.1102455	 £
-2.6587126	Ю £
-2.2861466	þ £
-2.3899698	± £
-2.5512838	Я £
-2.5726852	x £
-2.5440645	 £
-1.8330905	ź £
-1.8035924	Ÿ £
-2.2562084	Ď £
-2.056795	Ō £
-2.3307703	Ŷ £
-2.110978	Ŕ £
-2.6225376	Ь £
-2.004368	Ű £
-2.3759322	¸ £
-1.9920989	ǥ £
-2.2257624	Ç £
-1.9496909	ʩ £
-2.594808	и £
-2.0539784	¯ £
-1.7661656	ŝ £
-2.0997906	Ǫ £
-1.7938617	Ñ £
-2.284645	Ó £
-2.1731486	Ʃ £
-2.1481314	ȥ £
-2.090883	Ȩ £
-2.3495667	 £
-2.2704244	ż £
-2.5386422	â £
-2.012244	ʞ £
-1.7833635	Μ £
-2.2021484	ƨ £
-2.445055	ą £
-2.4599223	è £
-2.3836784	Æ £
-1.439612	Ϛ £
-2.2193823	ă £
-2.1780994	ŭ £
-1.3510257	ȭ £
-1.9397058	Ʒ £
-2.129265	ċ £
-1.5447595	˩ £
-1.8336589	͖ £
-2.061385	ň £
-1.890883	Ǻ £
-2.5128386	ƶ £
-1.5129095	Η £
-2.0893204	ɔ £
-2.4592273	ġ £
-2.1020033	ƚ £
-1.6521993	͞ £
-2.2347054	Ǧ £
-1.6272122	ο £
-1.9979836	Ζ £
-2.034614	̡ £
-1.9080669	Ƈ £
-2.1110137	Ɵ £
-1.8829252	ɩ £
-2.253729	Ň £
-1.6011409	͵ £
-1.998501	ƒ £
-2.046488	ȟ £
-1.8068124	ʣ £
-1.9198596	Ƌ £
-1.7154977	Ͷ £
-1.8636953	Ͳ £
-1.7684762	͹ £
-1.8412284	ʋ £
-1.5447595	˻ £
-1.3968265	ί £
-1.6373993	£ Ĩ
-1.4788694	д Ĩ
-1.8358691	Я Ĩ
-1.7365367	l Ĩ
-1.8852359	z Ĩ
-2.533192	´ Ĩ
-2.3546896	e Ĩ
-1.9741285	ˤ Ĩ
-2.3535495	i Ĩ
-1.8459667	ð Ĩ
-2.107502	ǯ Ĩ
-0.826935	 Ĩ
-2.5439563	ä Ĩ
-2.105948	Ȳ Ĩ
-0.9231913	ô Ĩ
-2.0874577	<s> é
-2.1477413	w é
-1.9019817	 é
-2.557217	 é
-1.7858094	ñ é
-2.13361	Ȧ é
-2.9371848	j é
-2.0270784	б é
-2.1986105	Ĩ é
-2.3722906	 é
-2.019498	Ã é
-1.9967208	ɣ é
-2.2674158	й é
-1.9856251	y é
-2.2215195	Ë é
-2.09134	¤ é
-2.3527074	Š é
-2.049821	 é
-1.9248754	± é
-2.3184292	x é
-2.5253696	 é
-2.4510376	 é
-2.3757749	ğ é
-2.4785907	 é
-2.2468767	Ď é
-2.7431843	´ é
-2.2221346	ł é
-1.5065577	ǔ é
-1.8580315	ή é
-2.1019368	Ŕ é
-2.0778549	ú é
-2.6004689	Ь é
-1.6841621	¹ é
-1.920427	} é
-2.0924683	ǰ é
-2.3626873	¸ é
-2.4704604	Ç é
-1.8731736	ȱ é
-2.2271636	Ö é
-2.2184858	 é
-2.3653975	ð é
-2.4291105	ȥ é
-2.3353086	 é
-2.129484	â é
-2.524231	к é
-1.7653542	˴ é
-2.3579407	 é
-2.2423706	ō é
-2.1893084	ƨ é
-2.523738	Ƅ é
-2.0293562	® é
-2.3973556	Î é
-2.401371	 é
-1.9639298	è é
-1.6224912	ϡ é
-2.2344897	ǎ é
-2.2144606	ɸ é
-1.3077111	Ɩ é
-2.1677725	ŭ é
-2.3556554	č é
-2.053308	ň é
-2.1760037	Ȅ é
-1.8934813	ņ é
-1.6352715	ʗ é
-2.1119335	Û é
-2.0814178	ɔ é
-1.6713831	˜ é
-1.6896199	˞ é
-2.127943	ġ é
-1.5970948	ȉ é
-1.9666064	š é
-2.1084144	Ǆ é
-2.0880492	ϓ é
-1.7490201	ț é
-1.8064574	ʰ é
-1.9151424	̬ é
-2.11323	Ɯ é
-1.8768439	ɩ é
-2.0754268	ä é
-1.6710744	̮ é
-1.6780751	ȏ é
-2.161074	ƻ é
-2.0542996	˘ é
-1.7600899	Ϊ é
-2.013906	ʁ é
-1.9711064	ĉ é
-2.037445	ȟ é
-1.714751	ʍ é
-1.8026702	î é
-1.9126807	Ƌ é
-1.7849345	Ƴ é
-1.6406883	ͧ é
-1.2936844	΋ é
-1.6105591	ȳ é
-1.8199781	ϲ é
-1.9407353	Ύ é
-1.5089895	ͯ é
-1.4448056	Ț é
-0.99558926	ζ é
-1.6783518	ɋ é
-1.5406181	͋ é
-3.3267953	{ ʥ
-2.8642411	j ʥ
-2.949423	б ʥ
-3.346093	 ʥ
-3.0129454	Ã ʥ
-2.0758474	Ë ʥ
-2.1116667	Ǌ ʥ
-2.9815764	 ʥ
-2.460815	 ʥ
-2.2554939	Ð ʥ
-2.9298475	 ʥ
-2.0838869	ʗ ʥ
-2.2681684	ç ʥ
-1.638439	͵ ʥ
-0.8695595	<s> 
-1.4990298	w 
-1.4019417	 
-2.3818629	{ 
-2.1685498	 
-1.6117194	³ 
-2.3894272	а 
-0.9849373	ñ 
-1.2676457	Ò 
-1.319664	Ȧ 
-1.6031992	å 
-1.3018162	τ 
-1.2026166	ɂ 
-1.1547455	б 
-1.9256504	£ 
-1.2727859	Ĩ 
-1.6307096	ʥ 
-2.159085	Ã 
-1.6182896	Ø 
-1.3625727	й 
-2.231994	в 
-2.1605582	ŉ 
-1.4561019	n 
-1.8209269	 
-1.8200153	Ǽ 
-2.4132304	 
-2.2038343	д 
-1.4538984	y 
-1.7678268	Ы 
-1.7943194	Ǌ 
-1.7188818	л 
-1.4208491	ʫ 
-1.9132708	¶ 
-1.7751203	Ɗ 
-1.5460359	¤ 
-1.3117951	 
-1.1613737	ŧ 
-1.133669	Š 
-1.5799094	е 
-1.6755815	ų 
-1.6849651	Ǟ 
-2.164317	Ю 
-2.1287286	 
-1.2647613	Ƀ 
-1.5110426	Ȕ 
-1.8839854	ʼ 
-1.3806324	þ 
-1.8773668	 
-1.4118631	± 
-1.8050369	Я 
-1.5902421	x 
-2.1694865	 
-1.232878	ź 
-1.9374481	h 
-1.8193895	° 
-1.2811052	 
-2.0513551	 
-1.8173487	Ɲ 
-1.3779286	ğ 
-1.8397564	½ 
-1.6153343	т 
-1.832445	 
-1.9163451	­ 
-1.8836515	 
-1.9203652	Ų 
-1.6009852	ǟ 
-1.888739	 
-1.2261103	ʑ 
-1.7364211	Ǳ 
-1.9914314	ĩ 
-2.247196	´ 
-1.5934002	ł 
-1.9542068	ƞ 
-1.3367698	Þ 
-1.778815	Ą 
-1.9992719	Ŷ 
-1.2063504	ή 
-2.1603756	г 
-1.6525602	Ŕ 
-0.9997232	õ 
-1.8176237	Ь 
-1.898888	ø 
-1.5876309	¹ 
-1.668224	Ü 
-1.1453822	} 
-0.68777335	ǰ 
-1.6770684	̀ 
-1.9725182	п 
-1.3460712	ϕ 
-2.0828245	¸ 
-1.8156668	ǥ 
-1.5084381	Ž 
-1.952001	 
-1.6305048	Ç 
-2.099293	Ð 
-1.4027721	 
-1.3882649	 
-1.6413368	ë 
-1.7764317	ʩ 
-2.227152	¢ 
-1.7294148	Ľ 
-1.7621272	и 
-1.301009	ǩ 
-2.264655	i 
-1.5749414	ϭ 
-1.3619845	ƃ 
-1.5250542	ŏ 
-1.3251146	ŝ 
-1.7718496	Ö 
-1.8629563	 
-1.1696124	İ 
-1.6355729	ƕ 
-1.7981884	Ĕ 
-1.4485863	ƴ 
-1.2440488	Ʃ 
-1.8225418	r 
-1.712772	È 
-1.5166832	̼ 
-1.8141664	ȥ 
-1.6379564	Ȩ 
-1.8973624	Ŝ 
-1.7306759	œ 
-0.9921339	Ɖ 
-1.4532844	 
-1.8070984	˃ 
-1.3032726	͜ 
-1.9805168	ż 
-1.5570972	ʞ 
-2.0470982	к 
-1.6913811	Ģ 
-1.8722485	ƽ 
-2.0647318	ĳ 
-1.330511	˴ 
-1.6440082	Μ 
-1.577553	ʝ 
-1.6660544	¼ 
-1.7899677	Ȼ 
-1.9049923	 
-1.591927	Ġ 
-1.3254248	ō 
-1.4767845	ɷ 
-1.0770061	ǀ 
-1.9571917	ą 
-1.7056621	ˀ 
-1.8298798	Ȃ 
-1.5339279	Ƅ 
-1.580112	® 
-1.6578766	Э 
-1.7658396	Î 
-1.821215	 
-1.417822	è 
-1.520722	ϡ 
-1.4842222	ǎ 
-2.2732844	Æ 
-1.8424414	Ơ 
-1.53403	¦ 
-1.7762271	Ƿ 
-1.3688694	Ϛ 
-1.7306731	ŕ 
-1.6274226	 
-1.5802974	ă 
-1.5172791	ǽ 
-1.2287271	Į 
-1.21819	ɸ 
-1.6835065	ĺ 
-1.8268567	ʨ 
-1.7702134	ʘ 
-1.4271322	ϧ 
-1.2638716	˅ 
-1.4706819	p 
-1.3655137	ŭ 
-1.6036617	ʷ 
-1.6785614	ɾ 
-1.7971298	ć 
-1.4558933	˸ 
-1.2941134	ȭ 
-1.7257041	č 
-1.7521895	Ʒ 
-1.9340001	ċ 
-1.3688694	̾ 
-1.0833037	ʺ 
-1.6928772	͖ 
-1.233013	ň 
-1.5917954	ɿ 
-1.1368756	Ȅ 
-1.7465678	ǜ 
-1.4549804	ņ 
-1.5345035	ʗ 
-0.97318256	Ϳ 
-1.521738	Ķ 
-1.411669	ȿ 
-1.719213	Ƣ 
-1.8918709	º 
-1.891811	ƶ 
-1.0820464	Η 
-1.6641952	Ŧ 
-1.7951301	̿ 
-1.9152632	Û 
-1.7925425	Ĵ 
-1.3252093	ȕ 
-0.9037452	̞ 
-1.2396464	˜ 
-1.5600988	Ʈ 
-1.181502	Ǉ 
-1.6224189	ш 
-1.8479903	Ƽ 
-1.1027764	ġ 
-1.7612727	ȉ 
-1.3584082	ˡ 
-1.3206884	š 
-1.4513401	˱ 
-1.5054246	ʈ 
-1.6439974	ϓ 
-1.7763	Ő 
-1.5647997	͕ 
-1.547495	Ζ 
-1.9596361	q 
-1.0838251	̡ 
-1.6281691	ț 
-1.6629728	ʰ 
-1.0866041	̬ 
-1.2908798	˖ 
-1.6694556	Ɯ 
-1.4015211	Ɨ 
-1.4982737	̅ 
-1.0612956	ǖ 
-1.7651755	Ī 
-1.437679	ɩ 
-1.815508	˗ 
-1.4821587	π 
-1.5747566	ˏ 
-1.7091041	ˊ 
-1.9186938	ä 
-1.7118088	Ŀ 
-1.6290283	ʐ 
-1.7373494	ƌ 
-1.3540717	͝ 
-1.5481697	ƒ 
-1.9178166	ƺ 
-1.7930096	Ĥ 
-1.2372469	μ 
-1.6379468	ə 
-1.8077793	ȏ 
-1.2400062	ƻ 
-1.0845647	ξ 
-1.3991349	ķ 
-1.8637176	˘ 
-1.6266623	Ϊ 
-1.1450843	Г 
-1.7501653	ǆ 
-1.6639922	ƙ 
-0.9235019	˔ 
-1.8944907	ȸ 
-1.376098	ʁ 
-1.7253797	Đ 
-1.6302787	ɢ 
-1.5755317	Ǜ 
-1.7908964	ˇ 
-1.2412815	ɨ 
-1.1795894	Κ 
-1.571406	Ǵ 
-1.7662442	Ǥ 
-1.5880615	ȟ 
-0.8644791	ʍ 
-1.6398962	Ǒ 
-1.4117337	ϔ 
-1.9310772	ʣ 
-1.1410947	ʹ 
-1.6458672	ʃ 
-1.2775872	ǂ 
-1.1925418	σ 
-1.4558933	̚ 
-1.6789145	î 
-1.2766511	ɓ 
-1.4696927	Ƌ 
-1.335459	˚ 
-1.4848709	Á 
-1.0508032	Ū 
-0.88331306	ʶ 
-1.4799283	̦ 
-1.577553	ɛ 
-1.1696124	ͤ 
-1.595707	Ͷ 
-1.4821587	Ͱ 
-1.687953	Ό 
-1.667688	ĸ 
-1.5790058	ʏ 
-0.9961512	Γ 
-0.74759316	̰ 
-1.1706575	ͧ 
-1.1756164	У 
-1.1410947	ɽ 
-1.3982563	ȑ 
-1.0137428	ƭ 
-1.2290704	ʧ 
-1.2102448	Ͳ 
-1.3094639	ȝ 
-1.3815434	ϲ 
-1.4605176	ǫ 
-1.1573035	ħ 
-1.0046126	ǅ 
-1.027028	ɵ 
-1.0181822	ϩ 
-1.1153365	΍ 
-1.6170468	Ɂ 
-1.2671976	ơ 
-1.5233152	Ɉ 
-0.97383195	Ύ 
-0.80561227	̈ 
-1.2260371	ψ 
-1.5859674	ɪ 
-1.640447	ɲ 
-1.4327261	Ȥ 
-0.944471	ϋ 
-1.5883944	ʲ 
-0.97052443	ɭ 
-1.53639	̓ 
-1.7335212	ȗ 
-1.2878444	Ϡ 
-1.6123774	Ȣ 
-1.1135302	Щ 
-1.3471745	ɡ 
-1.2479265	ȩ 
-1.3294996	Σ 
-1.6019776	̓ 
-1.4271322	ͯ 
-1.3178074	˦ 
-1.0495306	ʯ 
-1.3982563	ɝ 
-1.1882882	ɖ 
-1.4327261	Ψ 
-1.01091	ʅ 
-0.90298355	̵ 
-1.027028	ǝ 
-1.2426665	φ 
-0.80561227	ύ 
-0.91275257	ϗ 
-1.389327	α 
-1.365963	̴ 
-1.3737911	υ 
-1.1135302	Н 
-1.3982563	˛ 
-1.9657488	<s> Ŵ
-2.8725798	 Ŵ
-2.666339	 Ŵ
-2.9417248	а Ŵ
-2.0290186	ñ Ŵ
-2.6152446	б Ŵ
-2.0406482	 Ŵ
-2.5017018	й Ŵ
-2.724331	n Ŵ
-2.8045094	 Ŵ
-1.5871807	Ј Ŵ
-2.4052215	y Ŵ
-2.40809	Ы Ŵ
-2.6218047	¤ Ŵ
-2.5330696	 Ŵ
-2.0217974	ŧ Ŵ
-2.589484	е Ŵ
-2.7812195	 Ŵ
-2.0735826	ʼ Ŵ
-2.6273303	Я Ŵ
-2.630414	h Ŵ
-2.4353466	ğ Ŵ
-2.3739448	½ Ŵ
-2.3580039	ŵ Ŵ
-1.7527424	Ď Ŵ
-2.2222288	õ Ŵ
-1.449755	ώ Ŵ
-2.2708275	¹ Ŵ
-2.4505763	} Ŵ
-1.5933511	Ž Ŵ
-2.6620848	 Ŵ
-2.7328057	¯ Ŵ
-1.9789052	ƕ Ŵ
-2.1473303	Ɖ Ŵ
-1.7452197	͜ Ŵ
-2.3213158	ż Ŵ
-1.6734855	ʞ Ŵ
-2.406745	 Ŵ
-2.4601293	ģ Ŵ
-2.445783	Î Ŵ
-2.521583	è Ŵ
-1.6404648	ϡ Ŵ
-2.591282	ǎ Ŵ
-2.243965	ŕ Ŵ
-2.2615938	ă Ŵ
-2.2746844	ɸ Ŵ
-1.8506271	Ȅ Ŵ
-2.1361187	Ś Ŵ
-1.9152651	Ǻ Ŵ
-2.175108	Ŧ Ŵ
-2.0418992	Ǉ Ŵ
-1.6155391	ʈ Ŵ
-2.4638195	Ƈ Ŵ
-1.9057124	ɩ Ŵ
-2.122816	ɢ Ŵ
-1.9469254	Ƌ Ŵ
-1.5987252	ș Ŵ
-1.8074962	Ƴ Ŵ
-2.071337	ę Ŵ
-1.6188725	У Ŵ
-2.140123	ħ Ŵ
-1.7575448	ơ Ŵ
-1.2352087	̈ Ŵ
-1.8610935	˰ Ŵ
-2.558525	<s> Ã
-1.9383148	w Ã
-2.676758	 Ã
-2.7311778	{ Ã
-2.427435	 Ã
-1.6902952	а Ã
-2.245458	Ò Ã
-2.8862917	j Ã
-1.4624083	ɂ Ã
-1.9986312	б Ã
-2.2965045	£ Ã
-1.4338758	Ĩ Ã
-1.8375779	 Ã
-2.5146253	Ã Ã
-1.9511929	й Ã
-2.4578342	в Ã
-2.040628	n Ã
-0.7856064	 Ã
-2.4429922	д Ã
-2.288109	y Ã
-2.7819014	 Ã
-2.116329	Ы Ã
-1.6323624	Ǌ Ã
-1.8178858	ʫ Ã
-1.8759604	Ɗ Ã
-2.2134092	¤ Ã
-1.9396844	 Ã
-2.2632918	Š Ã
-2.012198	е Ã
-1.9532672	 Ã
-2.319876	Ю Ã
-2.1860025	 Ã
-2.1865253	þ Ã
-2.4433172	± Ã
-2.4159694	Я Ã
-2.0811245	ź Ã
-2.222081	h Ã
-2.345495	 Ã
-1.9953945	 Ã
-1.9640539	Ɲ Ã
-2.215832	½ Ã
-2.2111537	 Ã
-2.2365758	É Ã
-2.0141304	 Ã
-1.4327637	ŵ Ã
-2.4002783	Ď Ã
-1.8236015	ĩ Ã
-1.1488715	´ Ã
-1.8963177	Þ Ã
-2.295649	Ą Ã
-2.1136782	õ Ã
-2.1360605	ė Ã
-2.4671836	Ь Ã
-1.8591244	¹ Ã
-2.1579	} Ã
-1.9379294	ǥ Ã
-2.4204214	 Ã
-2.2543683	 Ã
-1.9138863	ë Ã
-2.111071	и Ã
-2.0483525	ǩ Ã
-1.6485773	ϭ Ã
-1.5678315	ŏ Ã
-1.660032	Ö Ã
-1.8207772	 Ã
-2.176223	ƕ Ã
-1.6134161	Ĕ Ã
-2.518939	Ñ Ã
-2.1021707	r Ã
-1.6062554	È Ã
-2.3361268	ȥ Ã
-2.0303802	Ȩ Ã
-1.193763	Ɖ Ã
-2.243938	 Ã
-1.9480947	ʞ Ã
-1.5483156	¾ Ã
-1.5009233	ƽ Ã
-2.2168953	ĳ Ã
-1.7418594	Μ Ã
-0.76674724	Ġ Ã
-1.9173675	ą Ã
-2.225095	Ƅ Ã
-1.9691384	® Ã
-2.4190395	ǎ Ã
-2.0031254	ͺ Ã
-1.9499195	Ơ Ã
-2.1130426	ŕ Ã
-2.3862898	 Ã
-1.8630264	ɸ Ã
-1.8613728	˅ Ã
-1.9071146	p Ã
-1.6597506	Ɩ Ã
-2.0661266	ɾ Ã
-2.1724854	ć Ã
-1.3351994	ȭ Ã
-1.8816109	Ʒ Ã
-1.7916808	͖ Ã
-2.13388	ǜ Ã
-1.8960384	Ϳ Ã
-1.7471018	ě Ã
-1.2356149	ȿ Ã
-1.8400198	Ǻ Ã
-1.0470419	ƶ Ã
-2.0473068	Ŧ Ã
-1.720651	̞ Ã
-1.9542842	Ǉ Ã
-1.6213537	͞ Ã
-2.1143801	ſ Ã
-1.9093391	Ő Ã
-1.4374404	̡ Ã
-1.3557038	ț Ã
-1.21367	Ƈ Ã
-1.6120365	̢ Ã
-1.930366	̂ Ã
-2.2975104	ä Ã
-2.100259	Ŀ Ã
-1.6727086	С Ã
-1.8584625	ƌ Ã
-2.0904655	ƻ Ã
-1.1089511	ξ Ã
-2.220017	· Ã
-1.5902435	Ш Ã
-1.6454701	ɨ Ã
-1.7330787	˼ Ã
-1.3788177	Τ Ã
-1.6790063	ɓ Ã
-1.4547875	ϯ Ã
-1.5751595	ͤ Ã
-1.7815535	Ŏ Ã
-1.7888002	Ό Ã
-1.6237537	Γ Ã
-1.6573542	ę Ã
-1.9419345	ͧ Ã
-1.9195349	͢ Ã
-1.5469064	ɽ Ã
-1.4547875	ȑ Ã
-1.7846289	̜ Ã
-1.8211669	Ͳ Ã
-1.7103431	ȝ Ã
-2.0383382	ħ Ã
-1.281149	Ƹ Ã
-1.7103423	ơ Ã
-1.6319629	ψ Ã
-1.6319629	Ƞ Ã
-1.8400198	ˮ Ã
-1.7215521	ɶ Ã
-1.6175508	ƹ Ã
-1.6762465	ʲ Ã
-1.421237	К Ã
-1.4878342	ͯ Ã
-1.4547875	ɝ Ã
-1.7183326	̵ Ã
-1.5311152	Х Ã
-1.6416734	ƅ Ã
-1.3964331	¬ Ã
-1.5193778	˻ Ã
-1.3310292	ŷ Ã
-1.6538734	ɋ Ã
-1.4547875	˛ Ã
-3.0688088	j Ν
-3.0327075	Ã Ν
-3.000341	й Ν
-2.45385	þ Ν
-2.938778	± Ν
-2.6134071	Ė Ν
-2.8593206	 Ν
-2.9390035	ŗ Ν
-2.8568375	Ƅ Ν
-1.8039051	Ɂ Ν
-1.9068652	ʋ Ν
-2.3440056	| Ø
-1.8094364	u Ø
-0.55986345	Ν Ø
-2.1984918	Ô Ø
-2.8134074	 Ø
-1.9661498	Ъ Ø
-2.5748544	l Ø
-1.6069008	s Ø
-2.6780276	з Ø
-2.332032	z Ø
-2.2873447	ĩ Ø
-2.4525852	Ĭ Ø
-1.3856407	e Ø
-2.5108817	¸ Ø
-2.2234297	 Ø
-2.72161	i Ø
-2.3971596	ƕ Ø
-1.0004108	Ê Ø
-2.4795253	È Ø
-2.0960784	~ Ø
-1.1234338	đ Ø
-1.6537069	с Ø
-2.4469628	÷ Ø
-1.5041914	˫ Ø
-2.2244384	 м
-2.5500445	à м
-2.3545752	û м
-1.7171837	å м
-2.0354054	g м
-2.2626405	Ĩ м
-2.317941	Ø м
-2.7627127	n м
-2.0822961	 м
-1.8376435	д м
-2.462866	 м
-2.032086	Ы м
-2.5757325	л м
-1.8966182	Ю м
-2.6569786	Я м
-2.3548565	h м
-2.328907	ж м
-1.7315311	v м
-2.3764834	 м
-1.2616793	 м
-2.2011256	Ų м
-2.2554958	ė м
-2.3931417	Ĭ м
-2.358014	Ü м
-2.3951387	 м
-1.2986617	˾ м
-0.82262653	ŏ м
-2.2948642	Ö м
-1.5269222	Ƃ м
-2.0204875	ǳ м
-2.0914662	ɇ м
-2.3863344	Э м
-1.1578248	Ċ м
-1.9771508	Ϳ м
-1.3769356	ǘ м
-1.9124635	Ƣ м
-0.7450663	Ί м
-1.3011967	ž м
-2.4896023	Û м
-2.0435832	Ƽ м
-0.6194689	ǣ м
-1.9022876	ď м
-2.2894876	q м
-1.6918519	Ƙ м
-1.5374007	Ɯ м
-2.0596435	ã м
-1.8855963	ǆ м
-1.9304347	» м
-0.6751357	ý м
-2.136037	ơ м
-0.82650995	Λ м
-1.4083896	ɭ м
-1.2995707	̪ м
-1.0494276	΃ м
-2.8092277	| ɣ
-1.5809739	Ν ɣ
-1.0289855	м ɣ
-1.568049	z ɣ
-2.602663	 ɣ
-2.9044588	 ɣ
-1.9647865	~ ɣ
-2.503471	w й
-2.9119444	 й
-1.8736327	 й
-2.2239175	³ й
-1.6168692	Ò й
-2.2862828	t й
-2.2044775	б й
-2.6417458	g й
-1.1522429	Ν й
-1.377777	Ø й
-2.1260235	м й
-0.30970633	ɣ й
-2.000667	f й
-1.3815737	n й
-2.2820501	k й
-0.50249064	 й
-2.159189	Ы й
-1.9919821	л й
-2.430117	Ô й
-2.5883589	у й
-1.8687898	е й
-1.2316602	 й
-1.3526628	 й
-1.9628077	þ й
-2.039405	 й
-1.6170824	Я й
-1.2884713	x й
-2.2166274	s й
-1.91474	h й
-2.2587276	° й
-2.2450993	v й
-1.268109	 й
-2.0433288	į й
-1.5632924	т й
-2.2760015	 й
-2.4504423	 й
-2.7031813	z й
-1.1916571	« й
-2.060468	 й
-1.1493953	ς й
-1.1941745	Ŕ й
-2.1933205	¹ й
-1.9322457	п й
-2.3435483	¸ й
-1.622564	Ǎ й
-2.3856852	© й
-1.6618485	 й
-1.5093468	и й
-2.547915	µ й
-1.8652054	i й
-1.9981314	ƃ й
-2.0453138	m й
-1.4813625	˽ й
-1.977032	Ĕ й
-2.3140244	È й
-1.7724873	Ŝ й
-1.8293504	 й
-1.3579686	к й
-2.265301	ĳ й
-1.9334276	¼ й
-2.3432214	 й
-1.4635208	 й
-2.6503534	~ й
-1.1210326	® й
-2.132492	ƿ й
-1.6168182	ϡ й
-1.8615046	ŕ й
-1.514862	 й
-1.6547158	ɉ й
-1.5684924	ć й
-2.0974736	Ä й
-2.4941585	н й
-0.4853847	ɬ й
-1.2375928	Ǔ й
-2.3351765	с й
-1.7158728	Ί й
-2.3642583	Û й
-1.6357296	Ƽ й
-1.9463673	Ĝ й
-1.3578966	ɧ й
-2.1536744	ſ й
-1.6356492	͕ й
-1.6768131	q й
-2.4485044	 й
-0.620447	· й
-1.5184727	Õ й
-1.4279746	ƛ й
-1.4212744	ã й
-1.9206272	Ĥ й
-1.747911	Ĳ й
-1.293387	· й
-1.2204304	ɀ й
-1.9504129	ǲ й
-1.371717	˼ й
-1.1797335	² й
-1.7310314	Ĉ й
-1.916938	ǂ й
-1.6489621	ù й
-1.3664886	¿ й
-0.66397125	ɺ й
-2.0846586	ħ й
-1.1437321	ј й
-0.6487849	β й
-0.6721878	Ƞ й
-1.2842499	ˮ й
-1.7406633	ɶ й
-0.90936613	ʾ й
-1.6157538	á й
-1.8187383	ȓ й
-1.39129	Ϋ й
-0.6979208	Х й
-1.151737	ͭ й
-0.64924395	̭ й
-2.6872616	<s> f
-2.6329865	w f
-3.0681117	 f
-3.0097725	{ f
-2.2157822	à f
-2.929858	а f
-1.8297106	Ͽ f
-2.5640404	j f
-2.6391494	ş f
-2.5942245	g f
-1.7549787	ʥ f
-1.9992503	 f
-2.5265222	Ã f
-2.7319424	й f
-1.8586631	ƥ f
-2.713448	n f
-2.9140613	 f
-2.8155975	y f
-3.0474496	 f
-2.6656666	Ы f
-1.6778187	Ч f
-2.4151974	Š f
-2.7716947	 f
-2.7209575	Ю f
-2.4168801	 f
-2.682128	± f
-2.6431074	x f
-2.3277352	 f
-2.5274117	 f
-2.4004376	 f
-2.1417327	Ŕ f
-2.18387	Ž f
-2.6389186	 f
-2.4247444	 f
-2.3076663	¢ f
-2.723559	¯ f
-2.281517	ā f
-2.3139324	ƕ f
-2.0350406	Ñ f
-2.4184062	¾ f
-2.4956756	¼ f
-2.2916174	ō f
-2.1131248	Ǡ f
-1.9114192	ƨ f
-2.6219172	Ƅ f
-2.2691045	ǎ f
-2.706457	Æ f
-1.6141887	ΐ f
-2.0189235	ʗ f
-2.196683	Ķ f
-2.4587111	Û f
-2.116045	ɔ f
-2.2060013	ˡ f
-1.9956297	Ő f
-2.1417992	Ƈ f
-1.4459926	ʰ f
-2.294928	Ň f
-2.2023237	Ŀ f
-1.8021572	ǡ f
-1.708429	Ǜ f
-2.002347	ĉ f
-2.0053034	̀ f
-1.5977379	ș f
-1.3000736	Ƹ f
-1.728182	ʲ f
-0.9396102	Ϯ f
-1.4483948	ʄ f
-3.0640452	 в
-2.4931812	{ в
-1.7108934	å в
-1.0868423	Ȑ в
-2.4872854	м в
-2.008741	й в
-0.96883017	f в
-1.7481453	n в
-2.2364004	л в
-1.936908	Ô в
-0.84234416	ˋ в
-1.5879893	Ϩ в
-2.6160154	Я в
-2.2550638	з в
-2.5249627	 в
-2.428498	ğ в
-2.3504522	 в
-1.6464688	« в
-2.1561773	ƞ в
-1.449259	˨ в
-2.4543242	Ь в
-1.1507498	Ĭ в
-1.6239942	п в
-1.1601018	¸ в
-1.3400509	 в
-2.5489821	Ç в
-1.1461082	 в
-0.50722146	˾ в
-2.6219654	i в
-2.3121746	ƕ в
-2.2272809	Ê в
-2.5023596	r в
-2.4935029	¼ в
-0.9982969	ɫ в
-1.1118755	ƿ в
-2.181267	p в
-1.6280589	ŭ в
-0.91170543	ϝ в
-2.0026672	ć в
-1.3513927	н в
-0.7352148	ǉ в
-1.6902025	Ǔ в
-2.2997754	ǘ в
-2.0589883	º в
-2.4564235	Û в
-0.9927411	÷ в
-1.9804108	Ĝ в
-2.4966507	ġ в
-1.9936191	̝ в
-1.6137395	ʈ в
-1.0864795	˫ в
-1.2941877	Õ в
-1.8529638	Ņ в
-0.578574	Ў в
-1.915165	Ǹ в
-0.7358725	̤ в
-1.3549167	͇ в
-1.1905335	î в
-1.1572877	̦ в
-1.0545946	Ư в
-1.0274078	ý в
-1.7713914	ħ в
-1.6994413	χ в
-1.4507782	̆ в
-1.3590424	Θ в
-1.4473952	Ѓ в
-0.7657061	ι в
-0.44527167	ȵ в
-1.821315	в ƥ
-1.7533865	Ô ƥ
-2.8051977	¤ ƥ
-1.9788663	Я ƥ
-2.1506312	Ȫ ƥ
-1.2635187	ʳ ƥ
-2.2692478	Ɠ ƥ
-0.9774798	ɴ ƥ
-2.0833182	ɑ ƥ
-1.7858202	Ĉ ƥ
-2.0447168	<s> ŉ
-2.0476687	Ʋ ŉ
-1.7698857	w ŉ
-1.4953046	 ŉ
-2.8681264	а ŉ
-1.8206807	Ͽ ŉ
-2.723278	б ŉ
-2.6379855	 ŉ
-2.4921966	Ã ŉ
-2.6750598	й ŉ
-1.4705968	ƥ ŉ
-2.489886	 ŉ
-1.6724261	Ч ŉ
-2.3828294	Š ŉ
-2.721344	 ŉ
-2.1128478	Ƀ ŉ
-2.3088331	 ŉ
-2.1759014	ź ŉ
-2.581682	v ŉ
-2.4021354	ğ ŉ
-2.063689	ǟ ŉ
-2.5451965	Ď ŉ
-2.2793322	Þ ŉ
-2.400216	Ō ŉ
-2.1256495	Ą ŉ
-2.3491318	Ŷ ŉ
-2.099173	ĭ ŉ
-1.967944	Ü ŉ
-1.6387763	ϕ ŉ
-2.5893824	 ŉ
-2.4375944	© ŉ
-2.2904375	ë ŉ
-2.58005	¢ ŉ
-2.6745827	¯ ŉ
-2.1812549	ŏ ŉ
-2.250451	Ö ŉ
-2.6731844	Ñ ŉ
-2.4665391	r ŉ
-2.1362154	Ŝ ŉ
-2.0214195	˃ ŉ
-2.5639164	â ŉ
-2.6417782	ŗ ŉ
-2.378177	¾ ŉ
-1.3918602	˴ ŉ
-2.4601426	¼ ŉ
-2.3985522	Ġ ŉ
-2.570059	Ƅ ŉ
-2.4781387	è ŉ
-2.2514522	ǎ ŉ
-1.9910908	Ƿ ŉ
-2.2410986	ɸ ŉ
-1.1565139	͎ ŉ
-2.1900184	ŭ ŉ
-1.5483384	˸ ŉ
-2.3781812	č ŉ
-2.1449003	Ŧ ŉ
-2.0219278	Ǉ ŉ
-1.841839	ˡ ŉ
-2.104115	ϓ ŉ
-1.9302005	̬ ŉ
-1.595093	̅ ŉ
-1.2776808	ɩ ŉ
-1.6052319	͵ ŉ
-2.0270593	ȶ ŉ
-2.184149	ƻ ŉ
-1.77125	Ϊ ŉ
-1.7960974	ƙ ŉ
-1.7909174	ǡ ŉ
-1.7885585	ȴ ŉ
-2.09888	ɢ ŉ
-1.9677107	Ǥ ŉ
-1.7050446	ȟ ŉ
-1.6314756	σ ŉ
-1.9280802	Ƌ ŉ
-1.9674773	ș ŉ
-1.9055163	Ϻ ŉ
-1.6068803	ͤ ŉ
-1.7205125	Ͷ ŉ
-1.6579536	Γ ŉ
-1.3915894	͉ ŉ
-1.6796312	ϩ ŉ
-1.5500069	΍ ŉ
-1.5153906	ͯ ŉ
-1.4432468	И ŉ
-1.6914315	| n
-2.1413493	w n
-2.6329124	 n
-2.5418448	 n
-1.912566	³ n
-1.7671108	а n
-1.883951	u n
-1.7835343	Ć n
-1.4787773	ɂ n
-2.7980952	g n
-2.2344513	Ø n
-1.7396783	м n
-2.4195209	й n
-2.5715892	k n
-1.9410478	д n
-2.6900265	y n
-2.555244	Ы n
-1.2349192	л n
-1.5908408	Ô n
-1.4188899	¶ n
-2.357876	 n
-1.959429	Ъ n
-1.3494259	Ȕ n
-1.9818743	 n
-2.375788	Ė n
-1.5895004	x n
-2.2827873	h n
-1.2894567	з n
-2.2664223	° n
-2.041801	v n
-1.3151366	 n
-2.3287432	 n
-2.0598688	ğ n
-1.4856074	į n
-2.2952042	½ n
-1.6960022	т n
-2.285221	 n
-1.0763106	ȁ n
-2.1339638	Ų n
-2.0848505	z n
-1.4643071	ǟ n
-1.3607175	 n
-1.5338101	ƞ n
-2.1259894	ø n
-1.4853258	e n
-1.2085506	¸ n
-2.4258587	ó n
-1.8113036	Â n
-2.0188162	Ç n
-1.2737293	© n
-0.81515276	ʩ n
-1.8894038	Ľ n
-1.8699472	 n
-2.2643852	µ n
-1.6387516	ƃ n
-1.5417745	r n
-1.4893446	È n
-1.1968367	ά n
-1.6427168	 n
-1.6233972	Ϸ n
-1.3588495	к n
-2.272032	ĳ n
-1.7799606	ĕ n
-1.9864637	Ȃ n
-1.6196455	ϡ n
-1.3847834	Ơ n
-2.1539626	¦ n
-1.9412984	ʘ n
-0.9122183	ɾ n
-0.6882318	Ä n
-1.3326294	Ί n
-1.7955536	Ŧ n
-1.7818452	÷ n
-1.4985846	ɔ n
-0.99803275	̝ n
-1.5861012	Ɠ n
-0.7977472	ȧ n
-1.3541034	Ţ n
-0.81378275	ſ n
-1.2314711	Ƙ n
-2.107757	Ɯ n
-1.9551743	˗ n
-1.6597842	̖ n
-1.6587036	Ŭ n
-1.6789755	ǭ n
-1.6664035	μ n
-1.4353136	ȣ n
-1.443931	̈́ n
-0.9265499	˄ n
-1.7888935	Г n
-1.7350484	˂ n
-1.8778138	ʟ n
-1.7572676	˼ n
-1.2360009	ˎ n
-0.35705683	» n
-1.2035916	ù n
-1.2924846	΋ n
-1.6823261	Α n
-1.5986327	λ n
-1.5258608	ħ n
-0.8884185	Ϭ n
-1.690567	ɪ n
-1.580388	͑ n
-1.1157134	Ȥ n
-0.44060028	˦ n
-1.6856575	χ n
-0.7509378	̽ n
-1.7102226	<s> 
-1.9521487	Ʋ 
-2.373925	w 
-1.6311803	 
-2.6968117	{ 
-1.9289879	à 
-2.1497912	³ 
-2.1909468	ñ 
-2.2247543	Ò 
-1.5426401	Ȧ 
-2.1867266	ǈ 
-1.9911008	б 
-2.2220168	ş 
-1.9783119	é 
-2.0672996	 
-1.3412049	Ŵ 
-1.9619997	ɣ 
-2.314816	й 
-1.7791507	ƥ 
-2.3320706	ŉ 
-2.2963219	n 
-2.231732	 
-1.9286175	Ǽ 
-1.790049	 
-1.6743546	y 
-1.9126152	 
-2.1023602	Ы 
-2.342708	л 
-2.1964374	¤ 
-2.33435	 
-1.601594	ŧ 
-2.2415524	Š 
-1.7553111	ų 
-1.4962453	 
-2.0489388	Ǟ 
-1.8024462	 
-2.1307664	± 
-2.3886611	Я 
-2.2259746	x 
-1.6659886	 
-2.3203876	 
-2.228821	 
-2.063446	­ 
-2.001023	 
-2.1947813	ŵ 
-1.4198388	Ď 
-2.1332934	ł 
-1.2332306	Ō 
-2.147469	г 
-2.0977957	õ 
-1.4859406	ĭ 
-1.8126605	Ь 
-1.9942355	} 
-1.3501172	ƫ 
-2.0309377	ǰ 
-1.604928	Ű 
-1.3831925	ϕ 
-2.2562106	¸ 
-2.061076	Ž 
-2.073512	 
-2.134462	Ç 
-2.291964	© 
-2.0239577	¢ 
-2.424512	и 
-2.0325694	ǩ 
-2.0035112	¯ 
-1.9538941	ƃ 
-1.7021075	ƕ 
-1.5707661	Ñ 
-1.7937529	Ʃ 
-1.0622572	Ǚ 
-1.9127548	r 
-1.9745593	È 
-2.0169	Ȩ 
-1.5158374	œ 
-2.221782	 
-1.933269	˃ 
-1.8986217	ż 
-2.1989553	â 
-1.9338729	ʞ 
-2.3886209	к 
-2.2309425	Ũ 
-1.1547449	Μ 
-2.3076932	¼ 
-1.7124588	ϱ 
-2.0120213	Ġ 
-1.695975	Ǡ 
-2.3022852	ģ 
-1.626321	Î 
-2.3218532	è 
-2.395729	ǎ 
-1.8471045	Æ 
-1.9026843	Ƿ 
-1.8398843	ă 
-1.483831	Į 
-2.114445	ɸ 
-1.8845055	ʘ 
-1.5193683	˅ 
-2.2858047	p 
-2.1503654	ć 
-1.5115443	Ä 
-2.269288	č 
-2.0548306	ċ 
-1.9879818	Ǔ 
-2.117758	ǜ 
-1.3244821	Ϳ 
-1.9342349	ě 
-1.2046964	΁ 
-2.1695936	ǘ 
-2.0070553	Ś 
-1.0305494	ʉ 
-2.0290494	Ŧ 
-1.6247535	ǵ 
-1.1405094	Ϧ 
-1.6512982	˞ 
-1.6897169	́ 
-1.8160039	ɼ 
-1.8822211	ȉ 
-2.07368	ˡ 
-2.0251298	ƚ 
-1.1761076	ʻ 
-2.1534255	Ǧ 
-0.9876594	ɮ 
-1.8959378	Ő 
-1.5901821	ο 
-2.1198733	q 
-1.9530432	̡ 
-1.8600018	Ƈ 
-1.5166558	П 
-1.8550715	̬ 
-2.05012	Ɯ 
-1.8242953	ɩ 
-2.1446793	Ň 
-1.7851734	Ŀ 
-1.8204012	ϫ 
-1.5245544	ʙ 
-1.9296758	ƒ 
-2.0389528	ƺ 
-1.6429933	ɍ 
-1.3850008	ǡ 
-1.9440322	ʁ 
-1.2130288	Є 
-1.8341074	Đ 
-1.4049006	̒ 
-1.592795	ˎ 
-2.2941504	² 
-1.8694764	» 
-1.7659656	ʣ 
-1.9230676	Д 
-1.6768703	ˠ 
-0.93870014	ρ 
-0.98761654	Ŏ 
-1.3129883	Ͷ 
-1.6528054	Ɔ 
-1.5405736	ɽ 
-1.4495406	ȑ 
-1.7744999	̜ 
-1.7013377	ȝ 
-1.7199198	͹ 
-2.0058377	ơ 
-1.5901821	Ɉ 
-1.7157259	ɲ 
-1.4925576	̃ 
-1.6085522	̓ 
-1.1393967	Ω 
-1.531757	Ξ 
-1.7791507	˰ 
-1.41502	ʅ 
-1.5437503	ɠ 
-1.270541	ƅ 
-1.206646	͙ 
-1.6222587	ƣ 
-1.0312346	ʭ 
-1.0312346	И 
-1.4178138	υ 
-2.786097	<s> k
-2.0292788	Ʋ k
-2.5363324	w k
-2.345517	{ k
-2.2227626	а k
-2.299676	ñ k
-1.8200117	ǈ k
-1.8925766	j k
-2.4073668	б k
-1.8324126	ş k
-1.8452333	g k
-2.1268654	£ k
-2.226605	é k
-1.9159929	 k
-1.9876239	й k
-2.1291718	 k
-2.8136218	 k
-2.3135595	д k
-2.517996	y k
-2.6145759	 k
-1.9141904	Ɗ k
-2.4581869	 k
-1.9865303	ŧ k
-1.823782	Ǟ k
-2.3777812	± k
-2.1145282	Ė k
-2.1538746	ź k
-1.6084791	Ÿ k
-2.4531026	 k
-2.3772821	ğ k
-2.2962308	 k
-2.560686	´ k
-2.2571921	Þ k
-2.0684476	Ā k
-2.0523684	Ō k
-2.0395088	Ŷ k
-2.3537862	ú k
-2.3968277	Ь k
-2.6107972	} k
-1.9860227	ǥ k
-2.566142	 k
-2.547532	¢ k
-1.5328367	Ľ k
-2.633043	¯ k
-1.6907519	ā k
-2.2593815	ƕ k
-1.6563537	˃ k
-2.5199533	â k
-1.5342696	ŗ k
-2.0049732	ʞ k
-2.3351574	Ũ k
-2.0467756	ɇ k
-2.3715866	Ġ k
-2.243742	ō k
-2.190893	ƨ k
-1.87305	ģ k
-2.4310997	ą k
-2.3094432	Ƅ k
-2.0537906	 k
-2.2354693	ǎ k
-1.6930604	ͺ k
-2.625343	Æ k
-2.1896102	ŕ k
-2.4899266	 k
-2.0081546	ʨ k
-1.9080479	˅ k
-2.1307778	ɾ k
-2.110395	Ä k
-1.8510118	ȿ k
-1.8752296	Ƣ k
-2.0899222	Ś k
-1.5565155	ƶ k
-2.3889363	Û k
-2.0823977	ɔ k
-1.8977302	Ƥ k
-2.094883	ƚ k
-1.9626713	Ő k
-2.0056455	͕ k
-1.715433	Ʉ k
-1.3306721	ǖ k
-1.9894861	̂ k
-2.243274	Ň k
-2.122766	ư k
-2.1628988	Ŀ k
-2.1067228	ƺ k
-2.0197845	ȏ k
-2.0149317	ʁ k
-1.9258008	ǂ k
-1.8989954	Ȯ k
-1.7855291	Ƴ k
-1.8202912	ɺ k
-2.1233559	ʇ k
-1.8207079	ϲ k
-1.7452645	Ɂ k
-1.8851972	ˮ k
-1.7270702	̓ k
-1.5530794	Ξ k
-1.8398045	ɖ k
-1.3938762	˶ k
-1.802798	ό k
-2.805767	| Ǽ
-2.5153737	u Ǽ
-1.78848	k Ǽ
-1.6228471	l Ǽ
-1.0985022	Ħ Ǽ
-2.1938334	ò Ǽ
-2.1435766	¸ Ǽ
-2.019122	ɫ Ǽ
-2.104906	~ Ǽ
-1.9253912	ɂ ʴ
-3.1191664	y ʴ
-2.9645202	± ʴ
-2.18578	ǰ ʴ
-1.697405	Ş ʴ
-1.9262056	Ͳ ʴ
-1.862415	ό ʴ
-2.7016518	é Ј
-3.0129454	Ã Ј
-1.3112133	ʴ Ј
-3.0707111	y Ј
-2.791527	 Ј
-2.5114207	Ō Ј
-2.1876724	Ǡ Ј
-2.3161395	ǜ Ј
-2.2679334	Ķ Ј
-2.166723	Ǆ Ј
-2.1120503	Ŭ Ј
-1.8025331	ʐ Ј
-2.077658	Ϝ Ј
-1.4648471	˥ Ј
-1.7407116	<s> 
-1.8777982	w 
-1.3891962	 
-2.4764538	{ 
-2.2701392	 
-2.198877	à 
-1.8262594	³ 
-2.497353	а 
-1.2514981	ñ 
-2.1318276	Ò 
-1.5201315	Ȧ 
-1.9185723	å 
-2.084092	ǈ 
-2.2953105	j 
-1.9994729	б 
-1.7847922	Ĩ 
-1.8066818	 
-1.557846	Ã 
-2.2033498	м 
-1.7548118	й 
-1.727217	ƥ 
-2.0904586	n 
-1.8502764	 
-1.572119	Ǽ 
-1.1555719	Ј 
-2.5164478	 
-1.5505822	y 
-2.609512	 
-1.9306446	Ë 
-2.2899768	Ы 
-1.8569777	Ǌ 
-1.7542065	ʫ 
-1.9851841	¶ 
-1.7255256	¤ 
-1.5195268	 
-1.8593769	ŧ 
-1.6059684	Š 
-1.9468387	е 
-2.0103664	 
-1.9646045	Ǟ 
-2.393365	Ю 
-2.1992555	 
-1.9934115	Ƀ 
-1.9336984	ʼ 
-1.8599681	þ 
-1.7634925	 
-1.5000987	± 
-2.2706168	Я 
-2.1560903	Ė 
-2.5035799	l 
-2.283946	x 
-2.2649186	 
-1.9820702	ź 
-2.2802129	h 
-1.7372731	 
-1.8794044	Ɲ 
-1.7837502	ğ 
-2.0969746	½ 
-2.0987163	 
-1.6980257	 
-1.6320579	ǟ 
-1.8834571	ŵ 
-1.7593639	ʑ 
-1.7985286	Ď 
-2.0529437	ĩ 
-2.333693	´ 
-1.8084898	ł 
-2.0846772	Þ 
-1.6913841	ǔ 
-1.5409944	Ą 
-1.4727226	Ŷ 
-1.4422946	ή 
-2.0773072	г 
-1.9552675	Ŕ 
-1.7625958	õ 
-1.9428719	ĭ 
-2.120615	ú 
-2.1904392	Ь 
-2.122326	Ĭ 
-1.7978866	¹ 
-1.5919971	Ђ 
-1.3891191	} 
-1.6776613	ǰ 
-1.9067198	Ű 
-1.1738974	ϕ 
-2.1624613	¸ 
-1.5702672	ǥ 
-1.7273278	Ž 
-2.134348	 
-2.0590613	Ç 
-2.1881723	Ð 
-2.2955928	 
-2.1500018	 
-1.8498352	ë 
-1.8210691	¢ 
-1.4794034	Ľ 
-2.3025002	и 
-1.5006329	ǩ 
-1.6075991	ϭ 
-1.9015528	ƃ 
-2.0508692	 
-1.9554416	Ǫ 
-1.1834576	İ 
-1.8447587	ƕ 
-2.221915	Ñ 
-1.6706302	ƴ 
-2.0526233	Ó 
-2.1979558	r 
-2.134272	È 
-1.5452899	̼ 
-2.0166755	ȥ 
-1.9537048	Ȩ 
-1.9625474	Ŝ 
-1.783784	œ 
-2.1231732	 
-1.5890913	˃ 
-1.2100623	Ϸ 
-1.8444594	ż 
-1.6799523	â 
-2.1841886	ŗ 
-1.3868239	ʞ 
-2.0993497	¾ 
-2.1127632	к 
-2.205	¼ 
-2.1971266	 
-1.5596143	̏ 
-1.957096	Ġ 
-1.3397508	ō 
-1.5073345	ɷ 
-1.2134026	ƨ 
-1.7960337	ǀ 
-2.1982932	ą 
-1.8802406	Ȃ 
-1.8649513	Ƅ 
-1.8832186	® 
-2.1783974	Э 
-1.9578127	 
-2.2172513	è 
-1.9441628	ǎ 
-1.8890826	Ơ 
-1.748449	¦ 
-1.3557397	΂ 
-1.5587149	Ƿ 
-2.0097585	ŕ 
-1.7658925	 
-1.6082441	ă 
-1.8013139	ɸ 
-1.3850325	ʨ 
-1.4542763	ϧ 
-1.5362306	ΐ 
-1.2802852	˅ 
-2.0017638	p 
-1.1332732	͎ 
-1.753978	ŭ 
-1.685155	ć 
-1.4842315	˸ 
-1.69488	Ä 
-1.6458681	ȭ 
-1.5721471	č 
-2.2737503	н 
-1.4587451	ʺ 
-1.4143885	Ǔ 
-1.9199909	ň 
-2.0334437	Ȅ 
-2.0433953	ǜ 
-1.4782467	ņ 
-1.56744	ʗ 
-2.0084777	Ķ 
-2.1015542	ě 
-1.7484934	ȿ 
-1.7319187	΁ 
-1.0937788	Ɇ 
-1.7740283	Ǻ 
-2.0108643	ç 
-1.456505	Η 
-1.9459112	Ŧ 
-1.9749696	Û 
-1.1110754	̞ 
-1.6002142	˜ 
-1.7690041	ʊ 
-1.0266051	ɼ 
-1.384072	Ǉ 
-1.9215704	ш 
-1.673378	ġ 
-1.5562422	ˡ 
-1.7950703	˱ 
-1.1429985	ϓ 
-2.0409203	ſ 
-1.3557397	ɮ 
-1.3670789	Ζ 
-2.0338316	q 
-1.8843975	̡ 
-1.6670674	ț 
-1.6411833	Ʉ 
-2.164887	Ƈ 
-1.391154	ʰ 
-1.948534	Ɵ 
-1.2459986	ɩ 
-1.9034292	ã 
-1.5904595	Ŭ 
-1.7476017	Ŀ 
-1.7894443	ƌ 
-1.7071866	͝ 
-1.9752572	ƺ 
-1.8091414	Ǹ 
-1.6785272	ə 
-1.6044664	ȏ 
-1.9923282	ƻ 
-1.0957216	ξ 
-1.9072515	ķ 
-1.6397557	˘ 
-1.6827893	ϻ 
-1.5994459	ʁ 
-1.6848423	ȴ 
-1.5880733	̣ 
-1.7773224	Đ 
-1.9333851	ɢ 
-1.0286398	ɨ 
-1.7065222	ɦ 
-1.609066	Ǵ 
-2.2031074	² 
-1.8510395	ĉ 
-1.3533838	Τ 
-1.6408256	ʍ 
-1.994609	ʣ 
-1.8292414	ǂ 
-1.5560628	σ 
-1.3870728	î 
-1.497865	Ƌ 
-1.4236023	ϯ 
-1.7009156	Ƴ 
-1.9215732	Ư 
-1.8961849	ʏ 
-1.1830001	ͧ 
-0.9208781	ē 
-1.7503083	ƭ 
-1.7669984	ʧ 
-1.4429121	Ͳ 
-1.6785272	͉ 
-1.6664922	ơ 
-1.8354895	Ύ 
-1.4686413	̃ 
-1.627004	ʲ 
-1.6966125	˹ 
-1.1265032	Щ 
-1.4542763	ͯ 
-1.2569919	Ћ 
-1.7638698	ȓ 
-1.4168674	˰ 
-1.7587014	ɖ 
-1.4587451	Ψ 
-1.3344598	̵ 
-1.4842315	˻ 
-1.0275853	α 
-1.3894426	̴ 
-1.4820385	͋ 
-1.4236023	˛ 
-3.0688088	j ĥ
-2.8479114	ş ĥ
-3.0464349	 ĥ
-2.3998954	Ø ĥ
-2.7646134	е ĥ
-1.7787786	ĭ ĥ
-2.9390035	ŗ ĥ
-2.3512645	ă ĥ
-2.6109917	Û ĥ
-1.7420195	˭ ĥ
-1.6676964	ο ĥ
-1.6436893	ĥ Ŋ
-3.0076172	l Ŋ
-2.5036924	 Ŋ
-1.6434941	˵ Ŋ
-0.4855795	М Ŋ
-3.0001736	 д
-2.7709427	{ д
-1.9904981	à д
-2.1430266	£ д
-2.2396052	é д
-1.6149127	м д
-2.459624	й д
-1.4702663	ƥ д
-2.856423	 д
-1.4807662	Ŋ д
-2.7545698	y д
-2.011002	л д
-1.9847935	 д
-2.5358334	е д
-2.116341	Я д
-2.5931633	x д
-0.98661613	з д
-2.0761628	ğ д
-2.320807	 д
-1.3892058	É д
-2.169829	­ д
-2.3873765	 д
-0.6978456	Ƭ д
-2.2439902	ł д
-1.4443904	˨ д
-2.240295	г д
-1.8479419	õ д
-2.2452893	Ь д
-2.3392248	Ĭ д
-2.4147847	} д
-2.1324542	ò д
-1.5173134	п д
-2.3895936	¸ д
-1.9991488	ǥ д
-1.2083207	ó д
-1.451701	 д
-1.6182059	Â д
-1.9180758	© д
-1.6747973	 д
-0.5782964	Ȭ д
-1.6896927	˾ д
-1.8752408	i д
-2.0196886	ƃ д
-2.4006026	m д
-1.2466193	Ö д
-2.1085236	æ д
-1.6403763	ʀ д
-1.320147	к д
-0.8861966	¼ д
-1.6187354	ǳ д
-1.740742	Ȓ д
-2.0475507	® д
-1.5488306	è д
-1.6301725	ϡ д
-2.1842992	¦ д
-2.230623	ă д
-2.1886778	ŭ д
-0.6210167	ˈ д
-2.1112893	Ċ д
-1.508699	ǘ д
-1.0943031	Ί д
-2.3526103	÷ д
-0.90213954	Ĝ д
-1.8886071	ȧ д
-2.309317	Ƙ д
-2.018155	ˏ д
-1.8833001	ˊ д
-2.0318427	ã д
-1.521132	Ǹ д
-1.782381	˄ д
-1.9663163	· д
-2.4225662	² д
-1.361736	̀ д
-1.9139837	» д
-1.2910737	ɛ д
-2.039148	ʏ д
-1.6105115	У д
-1.4558384	ϲ д
-1.5493543	ǫ д
-1.2698059	ǅ д
-0.911654	o д
-0.67948836	κ д
-1.6177534	Ѝ д
-1.4462693	̆ д
-1.399061	Ϋ д
-2.4350574	| y
-2.2351096	w y
-2.7951367	 y
-1.7824608	Ͽ y
-1.8061202	ɂ y
-2.5647051	б y
-1.8349643	Ĩ y
-2.164453	Ø y
-2.326158	м y
-1.4780321	й y
-1.8909645	в y
-1.7893612	ƥ y
-1.7138362	n y
-2.4881828	k y
-1.6048603	Ǽ y
-1.1800154	д y
-1.9549642	y y
-1.9618171	л y
-1.5953509	¶ y
-1.8753406	Ɗ y
-2.3564525	 y
-0.34863618	Ч y
-0.9411591	θ y
-2.7504363	Ъ y
-1.7251483	е y
-1.2272483	ų y
-2.530285	Ю y
-1.8014075	 y
-1.4409678	 y
-2.1851788	þ y
-2.1456003	± y
-1.6506833	l y
-1.7710544	h y
-1.8648324	ж y
-1.8062025	з y
-2.1152427	Ħ y
-1.5263649	v y
-1.655256	 y
-1.8021951	 y
-1.9956613	į y
-1.7709185	½ y
-1.9456463	 y
-2.0794637	­ y
-2.0132995	 y
-2.2299523	z y
-1.6214863	« y
-2.0192556	 y
-2.1498923	ł y
-1.69561	Ā y
-1.7641393	Ĭ y
-2.34653	п y
-2.2757862	¸ y
-1.4812138	 y
-1.8124437	Ç y
-1.4725895	© y
-2.4421728	 y
-1.8291155	 y
-1.9131826	ë y
-1.8600906	ˤ y
-1.8361181	и y
-2.3439977	 y
-1.0632696	ƴ y
-0.48314092	Ê y
-1.1876712	r y
-1.7896836	È y
-1.9941146	 y
-2.3860865	â y
-1.8627913	к y
-1.7692186	Ģ y
-1.367978	ĳ y
-1.649583	ʝ y
-1.4270185	¼ y
-1.345023	ϱ y
-1.2052224	 y
-1.5991489	̏ y
-2.03676	Ʊ y
-1.0445199	Ȃ y
-2.4810019	Э y
-2.035633	ɹ y
-1.1739858	¦ y
-1.6275057	ŕ y
-1.5670044	ʘ y
-1.6124284	Ɏ y
-1.674513	ʷ y
-2.1710694	ć y
-1.5932723	č y
-2.0675275	ċ y
-2.0215666	н y
-1.9986222	Ǔ y
-0.7514451	͍ y
-0.8876463	̿ y
-2.0549426	Û y
-1.0730071	ǵ y
-0.90317255	Ϧ y
-1.6960698	́ y
-2.0093632	ш y
-1.8350295	ʳ y
-2.1101978	Ɠ y
-1.5647839	ȇ y
-1.4110969	ʻ y
-2.1315565	ď y
-1.4697421	q y
-0.73837614	ɴ y
-1.6892471	ǌ y
-1.8454475	Õ y
-1.7905551	ƛ y
-1.6859119	Ň y
-1.6412716	̖ y
-1.8345091	ä y
-1.6358178	ã y
-1.1226909	ʐ y
-1.27419	̮ y
-1.7300029	ə y
-1.3035136	Ǘ y
-1.49088	͘ y
-1.1687415	ƻ y
-1.5424222	ɜ y
-1.2444103	ķ y
-0.516461	ƈ y
-0.4638657	΅ y
-1.7583246	ŀ y
-1.0689456	ʕ y
-1.6587976	Ǜ y
-1.5181974	ˇ y
-1.3625606	˼ y
-1.656455	Ǵ y
-1.3405323	Ĉ y
-1.3785505	Τ y
-1.9760015	ȟ y
-0.7802052	ʃ y
-1.5967242	σ y
-1.4544578	ϯ y
-0.74286336	ș y
-0.8001477	ù y
-0.8226906	Ϻ y
-1.4369465	Ό y
-1.435536	ę y
-1.4729475	̯ y
-1.0199245	ý y
-1.5112127	ʇ y
-0.7838545	̸ y
-1.5544364	В y
-0.5853286	ʵ y
-1.1381962	ј y
-1.5322726	Ź y
-1.8396182	ȗ y
-1.5359386	Ξ y
-1.702969	ǃ y
-0.44312942	Ќ y
-1.10819	Ψ y
-1.3785505	Ϋ y
-0.5747032	ϊ y
-1.4194157	Ѓ y
-1.5494514	ɠ y
-1.4978372	ɯ y
-0.61776334	͙ y
-1.6534632	ɋ y
-1.4585215	ω y
-1.050052	ˉ y
-0.4009368	Ϟ y
-2.4119241	<s> 
-1.6811404	w 
-2.408405	 
-2.1026628	 
-1.9930016	à 
-1.802896	³ 
-1.1234112	ñ 
-1.2731198	Ò 
-1.8866724	å 
-1.3095016	τ 
-1.7181783	ɂ 
-1.1574061	б 
-0.8902606	΄ 
-2.0969105	ş 
-1.1026171	Ĩ 
-0.752813	ʥ 
-1.9648813	 
-2.1005557	Ã 
-2.0178173	Ø 
-1.556942	м 
-1.0108774	ɣ 
-1.4815558	й 
-2.1165807	в 
-1.665368	n 
-1.8430555	Ǽ 
-1.495447	Ј 
-1.4122902	Ŋ 
-1.9811287	д 
-1.7245924	y 
-2.2273512	Ë 
-1.7836202	Ы 
-1.8219515	Ǌ 
-2.1845672	л 
-1.7221708	¶ 
-1.951507	¤ 
-0.81922424	 
-1.6750125	е 
-1.8105605	 
-1.7045485	Ǟ 
-1.8098469	Ю 
-1.3128414	Ȕ 
-1.6691709	þ 
-2.0213413	± 
-1.9569095	Я 
-2.075243	 
-1.0643866	ź 
-2.2263942	h 
-2.0666819	° 
-2.3005552	v 
-1.8648951	 
-2.0867827	 
-1.8447257	Ɲ 
-0.67639244	ğ 
-1.7046298	½ 
-2.1131616	т 
-1.8543415	 
-1.7130446	­ 
-1.3740318	 
-1.7063915	Ų 
-1.9135933	 
-1.9236455	Ď 
